#ifndef CNN_COEFFICIENTS_HPP
#define CNN_COEFFICIENTS_HPP

//#include <cstddef>
#include "cnn.hh"

static const int conv1_biases_dim0 = 64;
static const data_t conv1_biases[64] = { -0.96178979f, -0.23917986f, -0.23212402f, -0.22453420f, -1.71852744f, -0.25244606f, -0.70807356f, -2.07269645f, -0.40352401f, -0.65268344f, -1.05090392f, -0.08804913f, -0.51288158f, -0.19405423f, -0.62806863f, -1.99370205f, -0.10563080f, -1.53708804f, -1.42091131f, -2.43688560f, -0.81119192f, -0.52126473f, -2.35101843f, 0.10267098f, -0.17425123f, -0.34821951f, -1.04184127f, -0.47194067f, -0.25883618f, -0.93448347f, -0.39763850f, -0.91926754f, -0.37985542f, -1.39156711f, -2.16277623f, -0.39628947f, -0.43708149f, -0.66539854f, -0.19344170f, -0.75807929f, -1.36432159f, -0.74310488f, -0.57619452f, -1.80293298f, -0.38207579f, -0.95824027f, -0.23958017f, -1.23103976f, -0.84340107f, -1.08316875f, -0.19093898f, -0.26658115f, -0.69363737f, -1.06321299f, -0.18085641f, -0.48473349f, -1.31184340f, -1.01166320f, -0.45440874f, -1.69262898f, -2.28522992f, -0.32850105f, -0.29507414f, -0.16844949f };

static const int conv1_weights_dim0 = 3;
static const int conv1_weights_dim1 = 3;
static const int conv1_weights_dim2 = 3;
static const int conv1_weights_dim3 = 64;
//static const data_t conv1_weights[3][3][3][64] 
static const matrix4D<conv1_weights_dim0, conv1_weights_dim1, conv1_weights_dim2, conv1_weights_dim3> conv1_weights = { 0.77616161f, -0.24849854f, 0.16051300f, 0.85052759f, -0.13435844f, 0.22237605f, 0.18162090f, 0.15282650f, 0.13416687f, 0.09620086f, 0.04569865f, -0.10810467f, 0.46402156f, 0.10362466f, 0.21133176f, -0.46866497f, 0.19100097f, 0.33479446f, 0.10815506f, 0.25350258f, 0.36882728f, -0.28642318f, 0.36432850f, -0.18297957f, -0.22465911f, -0.08599702f, 0.56790310f, -0.88437831f, 0.07827950f, -0.06151725f, -0.01929099f, -0.29906595f, 0.28809345f, -0.18103801f, -0.67935109f, -0.69941968f, -0.23520559f, -0.42459485f, -1.15093899f, -0.33304638f, -0.02839035f, 0.13802729f, -0.42520598f, -0.16592562f, 0.05330156f, 0.52492392f, 0.14703925f, -0.73361474f, -0.11363668f, 0.72475064f, 0.48662463f, 0.26359540f, -0.53934449f, 0.18928193f, 0.47055292f, 0.28216672f, -0.43011951f, -0.45924836f, -0.10034012f, -0.81231451f, 0.68168676f, 0.25203493f, 0.18888061f, 0.13445123f, -0.37543604f, 0.12975723f, -0.67123449f, -0.08191305f, 0.35385176f, 0.34997830f, -0.48868620f, 0.26933032f, 0.13253978f, 0.06518054f, 0.12008387f, 0.08544242f, 0.06056598f, 0.39010268f, 0.31487173f, -1.05442131f, 0.59065604f, 0.47778294f, 0.10309126f, 0.14070506f, -0.57084614f, -0.01765387f, -0.58278555f, 0.21026339f, 0.45756242f, 0.64578307f, 0.02436678f, -0.09186421f, 0.15387541f, -0.38799760f, -0.23248595f, 0.16446003f, -0.13067100f, 0.35958272f, -0.21638323f, 0.36284417f, 0.26756278f, 0.69634688f, 0.94655234f, 0.59147489f, -0.23094206f, 0.03190156f, -0.13726452f, -0.18145223f, -0.53835708f, 0.31879872f, -0.41157633f, 0.14630125f, -0.55749977f, 0.68575478f, -0.15699557f, 0.13738370f, 0.50764424f, -0.28791818f, -1.15080583f, 0.26600072f, -0.00829896f, 0.18715102f, -0.09315388f, 0.12731034f, 0.23312756f, -0.26343960f, 0.03208741f, 0.23824836f, -0.59003842f, -0.22082801f, 0.18518658f, -0.76557523f, 0.64674646f, -0.68041319f, -0.00325711f, -0.13076933f, -0.01075301f, 0.05586591f, -0.70892125f, 0.13326602f, -0.20716918f, 0.10141011f, 0.40167338f, -1.15898693f, -0.24753015f, -0.61808848f, 0.27795228f, -0.41156465f, -0.49634975f, -0.33011332f, 0.13140410f, 0.09581776f, -0.16818573f, -0.82273757f, -0.21851708f, 0.07511798f, -0.86901832f, -0.18111689f, 0.13336731f, -0.21309175f, 0.06159260f, 0.10785134f, 0.79364490f, 0.61299157f, 0.30192065f, -0.41626975f, 0.13757701f, -0.11016968f, -0.17687036f, -0.37754270f, -0.15522663f, -0.57760543f, -0.38408503f, -0.20045655f, 0.36962748f, 0.35709760f, -0.12932646f, 0.51291090f, 0.36212134f, -0.10521523f, 0.01167931f, -0.06663460f, 0.77125621f, -0.57156253f, -0.13856280f, -0.26488581f, -0.09831399f, 0.27739510f, 0.25417256f, -0.01494306f, 0.13198498f, -0.31599218f, 0.96067274f, 0.53290266f, 0.18232635f, -0.07354859f, -0.22770502f, 0.20143671f, -0.00895650f, 0.46708348f, -0.06858845f, -0.63978583f, -0.15549229f, 0.03867428f, 0.91447329f, 0.41068631f, 0.17032792f, 0.75945026f, -0.66175604f, 0.37427276f, -0.38136163f, 0.26074055f, 0.29426050f, -0.38678983f, 0.07767726f, -0.30544817f, -0.12494995f, 0.75028562f, 0.67699552f, 1.09962547f, -0.24314058f, 0.07386729f, 0.67217761f, 0.54704827f, -0.92827708f, 0.27540904f, -0.36574286f, 0.47167712f, -0.81347036f, -0.24966633f, -1.64769435f, -1.26908195f, -0.09566397f, 0.06289470f, -0.46829805f, 0.14915577f, 0.20165584f, -0.10697614f, 1.12327349f, -0.52785438f, -0.07516677f, -0.88890141f, -0.19556467f, -0.27637237f, -0.49710482f, 0.88580740f, 0.36011726f, -0.20539241f, 0.01411850f, -0.39104420f, -0.08110520f, -0.82943517f, -0.13406150f, 0.87289572f, 0.23975365f, 0.33360296f, -0.23554605f, 0.27774885f, -0.09752848f, -0.03619090f, -0.04049794f, 0.36294386f, -0.10919153f, 0.42606983f, 0.07760303f, 0.53352243f, 0.09670097f, -0.53652590f, 0.46991655f, -0.30289754f, 0.16066885f, 0.22490908f, -0.50095957f, 0.29764882f, -0.19779406f, 0.16377339f, -0.49441180f, -1.01911688f, -0.70216358f, -0.05202333f, 0.27671310f, 0.26648003f, -0.00859691f, 0.19990621f, 0.68109196f, 0.02640813f, 0.37133110f, 1.09643722f, -0.04478123f, 0.22310306f, -0.42900172f, -0.17272008f, -0.32062694f, 0.77587479f, 1.14361751f, 0.46981725f, -0.37600628f, -0.33989745f, -0.12881582f, -0.24909860f, 0.15427616f, -0.13465971f, -1.05381191f, 0.32790595f, -0.01624691f, -1.15243769f, -0.01439437f, -0.75893980f, 0.49363694f, -0.65899366f, -0.38290709f, -0.12114291f, 0.26508039f, 0.15000494f, -0.32019872f, 0.17849800f, -0.41005012f, -0.14856146f, 0.18704106f, -0.09639201f, -1.02304041f, 0.21448344f, 0.18145332f, 0.14561173f, -0.33822501f, -0.56985217f, 0.01795159f, 0.21674660f, -0.65672910f, 0.42211118f, -0.44541708f, -0.00430304f, -0.51218551f, 0.35567787f, 0.41194919f, 0.02787844f, -0.74045593f, -0.55383605f, 0.31931850f, -0.34089851f, -0.32019740f, 0.34744385f, -0.26010010f, 0.15235388f, 0.37210068f, -0.56070727f, -0.05208092f, 0.32216117f, -0.36754739f, 0.43944791f, 0.11497246f, 0.15106249f, -0.39889899f, 0.57780009f, 0.41162202f, -0.37547493f, 0.01212438f, -0.20458761f, 0.52929229f, 0.66159052f, -0.23851846f, 0.39100143f, -0.05954734f, -0.34465063f, 0.06485528f, 0.26881030f, -0.83164847f, 0.11219612f, 0.56470662f, -0.46141732f, -0.61797577f, 0.18804821f, -0.03149440f, -0.15829139f, 0.03468394f, 0.46680164f, 0.26204166f, 0.00741180f, -0.42696324f, 0.31664968f, -0.03032695f, 0.62733966f, -0.06512369f, -0.57393479f, 0.50133085f, -0.11455914f, -0.36479247f, -0.36068076f, -0.20940435f, 0.15653650f, -0.12974460f, 0.13536480f, -0.45630646f, -0.27153346f, 0.21929029f, 0.20743138f, 0.70262802f, -0.43861508f, -0.10464429f, -0.03078510f, 0.43642670f, -0.57243174f, -0.10308734f, 0.45434153f, 0.11776604f, 1.13421226f, -0.03295442f, -0.25552237f, 0.37967244f, 0.07020023f, -0.13527194f, -0.55017352f, -0.14758110f, 0.05787816f, -0.66845787f, -0.55971897f, -0.16441800f, 0.00908077f, 0.25050369f, 1.00307655f, 0.35190353f, -0.27917293f, -0.95975316f, 0.40397960f, 0.02224885f, -0.05193311f, -0.37635308f, 0.74005354f, 0.15105565f, -0.54425216f, -0.41816655f, 0.09732252f, -0.12804164f, 1.04387295f, -0.12683946f, 0.32501701f, -0.60717350f, 0.20414242f, 0.55049706f, -0.83675128f, -0.34405118f, 0.86811745f, -0.07490459f, -0.73381388f, -0.85728729f, -0.12379190f, 0.53177929f, 0.28594753f, -0.14564706f, -0.13843192f, 0.41828996f, 0.11812910f, 0.18635587f, 0.65583080f, -0.20799787f, 0.58200693f, 0.14056066f, 0.66634905f, -0.21473926f, -0.51187038f, 0.04135899f, -0.29872653f, -0.17777966f, 0.45839036f, 0.36261582f, 0.27501813f, 0.11546534f, 0.13333200f, 0.00090338f, 0.29777965f, -0.52155942f, 0.06037065f, -0.65176707f, 0.36103684f, -0.06362951f, -0.33274335f, 0.27705550f, 0.42943808f, 0.05676763f, -0.06884543f, 1.21350622f, -1.04266989f, -0.23040836f, -0.26669073f, 0.08090863f, 0.28893876f, 0.87987786f, -0.11135718f, -0.29565218f, -0.32580757f, -0.04823688f, -0.26971483f, 0.48209691f, -0.52612597f, 0.46605709f, 0.13247798f, -0.46686563f, -0.11703973f, 0.17447263f, 0.11171064f, 1.20943761f, -0.61660135f, -1.46502197f, -0.18456778f, -0.21972124f, 0.30464473f, -0.17314441f, -0.06437578f, -0.77236521f, -0.24270998f, 0.56552345f, -0.00008230f, -0.99082404f, -0.14827669f, -0.36225024f, 0.29485717f, 0.29828802f, -0.73502266f, 0.32395524f, -0.18489170f, -0.25431511f, -0.26487321f, 0.51918334f, 0.09572792f, -0.71199220f, -0.52752596f, 0.38665268f, -0.07587712f, 0.54469508f, 0.20699805f, 0.25714177f, -0.47011223f, 0.36154988f, 0.27977696f, -0.47502381f, 0.49460068f, -0.31767559f, -0.28901881f, -0.12355313f, 0.11627459f, 0.18685265f, 0.24565400f, -0.30927688f, -0.14418761f, -0.15707621f, -0.43513909f, 0.27776587f, -1.10522127f, -0.23515148f, -0.26493913f, 0.13581410f, -0.34243766f, -0.06000762f, 0.33037293f, -0.09677024f, -0.19608092f, -0.18962587f, 0.32718575f, 0.18771435f, 0.08763082f, 0.11661209f, 0.80438816f, 0.07906342f, -0.03770800f, -0.50466532f, 0.35972562f, 0.87513328f, 0.63106912f, -0.11061852f, -0.12116254f, -0.31191826f, 0.43476364f, -0.53972095f, 0.34502569f, -0.16051948f, -0.73736960f, -0.08393140f, 0.85049045f, 0.38519537f, 1.10835779f, -0.29209790f, -0.37450209f, -0.10381141f, 0.17214148f, 0.14603394f, 0.53829360f, 0.20674019f, -0.34279582f, -0.98270184f, 0.34319457f, -0.62795180f, 0.11178831f, -0.73422515f, 0.16407229f, -0.29729092f, -0.00279024f, 0.38554832f, 0.41192415f, -0.07959983f, -0.03125595f, -0.30063802f, 1.02340710f, 0.57267922f, -0.59523308f, -0.05232550f, 0.04414461f, -0.77999580f, -0.45447862f, 0.78095377f, -0.29171297f, 0.20244587f, -0.89519459f, -0.93513012f, -0.25442851f, 0.58186197f, -0.82095873f, -0.22356670f, 0.02651602f, 0.34895498f, -0.20879540f, -0.15153658f, 0.28017110f, 0.34615061f, -0.61085832f, -0.01046176f, -0.32615215f, 0.13590218f, 0.01540843f, 0.96210569f, -0.36885241f, 0.00347195f, 0.63585776f, -0.50243330f, -0.45437875f, 0.04074266f, -0.36238220f, -0.07850243f, 0.03704849f, -0.24710055f, -0.68556577f, -0.19817476f, 0.65684795f, -0.44099534f, -0.40887779f, -0.23313102f, -0.54837006f, -0.14792038f, 0.13116194f, 0.00476627f, -0.76262128f, 0.18442601f, 0.00169315f, -0.32639053f, -0.33091274f, -0.46565226f, -0.15817267f, -0.36947340f, 0.17966372f, -0.10666250f, 0.03913940f, 0.82873589f, 1.05208087f, -0.40956768f, 0.25813034f, 0.46379098f, 0.56982261f, -0.10732443f, 0.29434207f, 0.39373735f, 0.17794497f, -0.58560288f, -0.20535199f, -0.33602172f, -0.01318389f, 0.10507047f, 0.26830384f, -0.47803950f, 0.26650989f, -0.10699585f, 0.26793483f, -0.01387753f, -0.24025512f, 0.12573403f, 0.60199177f, -0.23125044f, 0.27210522f, -0.30941209f, 0.80756438f, -0.12974565f, -0.03848587f, -0.02366256f, 0.86275840f, -1.46686268f, 0.04934356f, -0.32610261f, 0.21667068f, 0.01573591f, 0.06811264f, 0.37226129f, 0.29037327f, -0.12866133f, 0.20299961f, -0.49128008f, 0.34949333f, 0.34395197f, 0.42152053f, 0.91607881f, -0.81981564f, 0.39855751f, 1.01633596f, 0.08560906f, 0.00966312f, 0.36771637f, -0.58223289f, -0.78747272f, 0.08179514f, 0.73959899f, 0.36537713f, 0.56063259f, 0.39883307f, -0.71086657f, -0.67682195f, 0.28463653f, -0.00539649f, 0.50783145f, -0.08453935f, -0.15483002f, -0.00344370f, -0.07123928f, -0.94319916f, 0.02130398f, -0.41404286f, -0.56528366f, 0.42390671f, -0.44801146f, -0.21717216f, 0.41621134f, -0.33993348f, -0.05088995f, 1.01104128f, -0.13069174f, -0.14419843f, -0.41687781f, 0.50106251f, -0.29102147f, 0.24086778f, 0.36107248f, 0.37324172f, -0.04336667f, 0.37570122f, -0.26105800f, 0.68798554f, -0.27870798f, -0.65658927f, 0.76719475f, 0.15271737f, 0.35944989f, -0.11698107f, 0.23849528f, -0.64901823f, -0.02141161f, 0.08416728f, 0.40666062f, 0.20329681f, -0.06422052f, -0.17900810f, -0.20578034f, 0.47182193f, 0.08496076f, -0.90770817f, -0.04683606f, -0.67868120f, 0.25559002f, -0.37073749f, -0.00024765f, -1.26542735f, 0.68109935f, -0.10341368f, 0.06192071f, 0.12825973f, -0.66148096f, -0.77902549f, -0.44161636f, 0.19721813f, 1.14160645f, 0.26511264f, -0.24527745f, -0.06457925f, 0.23989831f, -0.63981575f, -0.16812693f, -0.07979603f, -0.15088062f, 0.04759385f, -0.06033427f, 1.04877460f, -0.29758936f, 0.18787974f, 0.33766451f, -0.12374011f, 0.55005759f, 0.05240700f, 0.41202617f, -0.26765022f, 0.45404846f, -0.54788172f, 0.32095253f, -0.75378829f, 0.19754685f, 0.02355124f, 0.06580170f, -0.53897685f, 0.02469560f, -0.36563751f, 0.44042200f, 0.08423381f, 0.27061471f, 0.36351076f, -0.06774103f, -0.60409582f, 0.52160281f, 1.10905540f, -0.84435874f, 0.15883984f, -0.73035890f, -0.47283632f, 0.10460916f, -0.45858887f, 0.22862439f, 0.07100671f, -0.50137442f, -0.30736402f, -0.07707664f, -0.85103273f, -0.33861619f, 0.01110709f, 0.30619389f, -0.35968405f, 0.10323618f, -1.36560237f, 0.12492202f, -0.01608898f, -0.04311255f, 0.02218862f, -0.18985757f, -0.85405302f, -0.50949603f, 0.33950782f, 0.90380830f, -0.22943610f, -0.05563892f, 0.04748853f, 0.39510444f, -0.43728596f, 0.21564862f, 0.08174797f, 0.33210826f, -0.40497407f, -0.07012679f, 0.43128064f, 0.78210199f, 0.33068165f, -0.09775162f, 0.19095367f, 0.09148485f, 0.57837033f, 0.21326107f, -0.11638458f, -0.12688974f, 0.12000229f, 0.00123243f, -0.04429398f, 0.33484325f, -0.62018287f, 0.12859008f, -0.05938493f, 0.20450649f, -0.34167343f, -0.41379967f, 0.42346707f, 0.53158104f, 0.57287318f, -0.13596962f, -0.77855706f, -1.06611109f, -0.35878781f, 2.00035667f, -0.26044831f, -0.10533809f, -0.03512642f, 0.73484176f, 0.29368803f, 0.02182868f, -0.16223115f, -0.35880396f, 0.12717943f, -0.21196753f, -0.31266677f, -0.61605281f, 0.72291416f, 0.34688163f, 0.97635704f, 0.20534545f, -0.55385083f, 0.12626414f, 0.31006205f, -0.30385467f, 0.26949424f, 0.47022981f, -0.59018642f, -0.04735769f, 0.60080939f, 1.48498130f, -0.66190720f, 0.44946170f, -0.13601235f, -0.18626006f, 0.08932080f, 0.01020601f, -0.08608630f, 0.55905455f, 0.29755884f, 0.19178952f, 0.06921414f, 0.50193983f, 0.33463916f, 0.56304193f, -0.11535516f, 0.44762474f, 0.55433917f, -0.27048302f, 0.35131207f, 0.10774536f, -0.12144119f, -0.30175945f, 0.74407703f, 0.33599040f, 0.84924269f, 0.41160911f, -0.05554167f, 0.25491667f, 0.10725838f, -0.41764954f, -0.00242647f, 0.51954335f, 0.36600587f, -0.54166669f, -0.19713966f, 0.38566122f, -0.39706260f, -1.27104723f, 0.10246196f, -0.29671076f, 0.18085448f, 0.49720505f, 0.15485796f, 0.48579377f, 0.07807652f, 0.15792109f, 0.47880954f, -0.23699894f, -0.04845633f, -0.39256269f, -0.74975568f, -0.24223259f, -0.21286883f, -0.00347915f, 0.13478978f, 0.13649669f, -1.00403714f, 0.18031950f, 0.20499700f, 0.66760844f, 0.35160658f, -0.12187453f, -0.62410587f, -0.55127174f, -0.09842893f, 0.12559619f, 0.04310269f, -0.31920618f, -0.26719633f, -0.04931910f, -0.09140652f, 0.47747037f, -0.25597244f, -1.02909005f, -0.46792439f, -0.17846073f, -0.07750255f, 0.56171220f, -0.22941181f, -1.11717439f, -0.23245961f, 0.35946745f, 0.88071716f, 0.77088040f, 0.11771705f, 0.25347263f, 1.16398036f, -0.25457686f, 0.06120037f, 0.04720675f, 0.28945732f, -0.11978850f, -0.06710281f, -1.03446269f, 0.42220268f, 0.08903631f, 0.26908645f, -0.01129760f, 0.21242563f, -0.36655757f, 0.51981187f, -0.28241387f, -0.68742132f, -0.23066980f, 0.68125629f, 0.12473202f, -0.41480082f, 0.50066561f, 0.05262258f, -0.69225413f, -0.13251987f, 0.17299858f, 0.03315065f, 1.21986139f, 0.42698255f, 0.16174056f, 0.00447121f, -0.14825207f, 0.04904921f, -0.17732720f, 0.93527871f, -0.33696026f, -0.25718945f, 0.16845344f, 1.06070960f, -0.34152746f, 0.09807886f, -0.82734829f, 0.15360089f, -0.12727346f, 0.09801546f, 0.02059452f, -0.97499037f, 0.54529077f, -0.05743918f, -0.65170765f, -0.23801109f, -0.13289300f, -0.11065445f, -0.45527273f, -0.10841280f, 0.45654813f, -0.16527586f, 0.09906647f, -0.29342130f, -0.01927052f, -0.19018689f, 0.09978578f, 0.06441354f, -0.16372806f, -0.58244389f, -0.09465311f, -0.44633091f, 0.10459022f, -0.28202543f, 0.21483964f, -0.10042087f, 1.12457371f, -0.34254748f, -0.20924522f, -0.60583335f, 0.19103085f, 0.64487606f, 0.63103884f, -0.50421888f, 0.37840387f, -0.17425927f, 0.03381888f, -0.17286122f, 0.72406852f, 0.09011219f, -0.06498008f, -0.06708560f, -0.72453707f, -0.00999592f, 0.16639720f, -0.09107299f, -0.37228322f, 0.36281544f, 0.50618267f, 0.12808722f, -0.00075807f, -0.00535164f, -0.87858409f, 0.88123000f, 0.26633111f, 0.47342092f, -0.32197630f, 0.19991872f, -0.02892837f, -0.07260747f, -0.38117459f, 0.13232437f, -0.36382317f, -0.09134188f, 0.21192046f, 0.32600149f, 0.04675923f, 0.00671601f, -0.32513297f, 0.32580543f, 0.05931092f, -0.30321932f, 0.47876984f, -0.47073659f, -0.09973488f, -0.12812979f, -0.70866573f, 0.03707694f, 0.04063819f, -0.92061019f, 0.08246934f, 0.25079805f, -0.10588901f, -0.30391818f, 0.14019015f, 0.37360221f, 0.29753137f, -0.05387131f, 0.06472974f, -0.24466102f, 0.67332059f, -0.55687916f, -0.10956696f, -0.29250365f, -0.19108708f, 0.14752996f, -0.33355328f, -0.21973552f, -0.11540613f, 0.73308069f, 0.06905551f, -0.32676998f, 0.55224121f, 0.20005032f, 0.10833170f, 0.06290221f, -0.19215101f, 0.15693976f, -0.70194745f, -0.22211803f, -0.66449833f, 1.37038946f, 0.19263430f, -0.05282554f, -0.05664906f, 0.35493293f, -0.43977508f, 0.76164091f, -0.18239333f, -0.03003887f, -0.18404455f, -0.07745613f, 0.30732536f, -0.01193022f, 0.27534375f, -0.21959585f, -0.40357599f, -0.34680897f, -1.06062388f, -0.22425827f, -0.00197178f, -0.33993515f, -0.32131016f, -0.52049768f, 0.31899774f, -0.24305019f, 0.27878225f, -0.16621368f, 0.37034094f, 0.08580943f, -0.46457273f, -0.10468150f, 0.88356090f, -0.22443147f, 0.64330697f, 0.32328340f, 0.76559633f, -0.18947220f, -0.49815863f, 0.02959676f, 0.55115217f, -0.08670396f, -0.11524333f, -1.05818033f, 0.00314452f, -0.68595940f, -0.22107512f, -0.38303587f, -0.08813580f, 0.17974939f, 1.19058561f, -1.08676863f, 0.07502930f, 0.60466880f, 0.53799486f, -0.52517080f, 0.09091309f, 0.37695649f, -0.22769052f, -0.26842466f, 0.25304622f, -0.56136996f, 0.11308511f, -0.27159825f, -1.28876436f, -0.67543662f, -0.33189619f, -0.67100567f, -0.10867842f, 0.10276180f, -0.12270585f, -0.45037696f, 0.13514371f, 0.05742074f, 0.11317339f, -0.70762014f, -0.31280270f, 0.06095355f, 0.47267395f, 0.25947052f, 0.04564613f, 0.02419182f, -0.00560014f, 0.27029657f, 0.02533006f, -0.02581422f, 0.51113403f, -0.01768335f, -0.04511364f, -0.05946801f, -0.03604745f, 0.35254055f, 1.22776926f, 0.03476226f, -0.67276329f, -0.11310924f, 0.57033431f, 0.17694308f, -0.14218369f, 0.31275162f, -0.94059104f, -0.03656625f, -0.32451773f, -0.26122370f, 0.06744588f, 0.76467091f, -0.61556584f, -0.42956904f, -0.19265969f, 0.47264954f, -0.16445568f, -0.09760609f, 0.04517972f, 0.60237163f, -1.72665870f, 0.88490117f, -0.28380209f, 0.49739715f, 0.27272847f, 0.17017004f, -0.35805559f, -0.01746026f, 0.21738759f, 0.42274958f, 0.38897902f, 0.18331206f, 0.68924624f, -0.34703499f, 0.63810551f, -0.87499452f, -0.73585647f, 0.67472863f, -0.20262411f, 0.03368324f, 0.26574338f, -0.36753878f, -0.33849516f, 0.42483980f, 0.20899679f, -0.17219318f, -0.22491542f, 0.47437894f, 0.53334200f, -0.08436739f, 0.47953990f, 0.38435626f, -0.25158146f, -0.54209167f, -0.22485203f, -0.12105548f, -0.21439916f, 0.32560471f, 0.01332344f, -0.16167776f, 0.05573018f, 0.07878076f, 0.01896658f, 0.27359784f, -0.02960725f, -0.55661482f, -0.76677549f, 0.34947211f, 0.03700766f, 0.12280951f, 0.13096614f, 0.26478803f, -0.60039771f, 0.13641496f, -0.08840700f, 0.22080773f, -0.17607178f, 0.10828585f, -0.02010591f, 0.32709014f, -0.38647827f, -0.31272155f, 0.43247989f, 0.09599317f, 0.67927068f, 0.28793266f, 0.23549065f, -0.73117047f, 0.03859990f, 0.08793364f, -0.13325270f, -0.50373596f, 0.05823747f, -0.20471539f, -0.07240486f, 0.13005327f, -0.49823603f, -0.09837668f, 1.35372913f, -0.92819416f, 0.31244415f, -0.34783509f, -0.10780249f, -0.04592787f, -0.19283575f, 0.75838167f, -0.28914267f, -0.01635370f, -0.89270276f, 0.28798661f, 0.42943722f, -0.11438387f, -0.44243863f, -0.26991272f, 0.54520589f, 0.24383479f, -0.29332167f, 0.43990564f, -0.02769681f, -0.00196628f, -0.35085031f, -0.95270807f, -0.57959586f, 0.67375165f, -0.07296633f, 0.08612639f, -0.80039483f, -0.21916939f, 0.61289942f, -0.05351227f, 0.42328754f, -0.35445389f, 0.88449484f, -0.46778592f, 0.97821319f, 0.53879052f, 0.18731247f, 0.11590634f, -0.04106946f, -0.25278896f, 0.06456903f, -0.17704417f, 0.03623509f, 0.11982779f, 0.08078944f, 0.11135605f, -0.11446973f, -0.57195169f, 0.75276274f, -0.20071130f, -0.95216405f, 0.40462726f, 0.62677967f, -0.68568599f, -0.06675174f, 0.60851359f, -0.00139288f, -0.12351786f, 0.00010612f, -0.27106938f, 0.36881310f, 0.01921928f, 0.33274323f, 0.15631156f, -0.26236719f, -0.64785671f, -0.18543905f, -0.53593641f, -0.13423325f, -0.72564059f, -0.11619804f, -0.27283773f, -0.16655521f, 0.65800071f, 0.43253520f, 0.15400869f, -0.94859803f, -0.09893835f, 0.36147389f, 0.87938547f, 0.33914858f, 1.06050181f, 0.63204682f, 0.29555041f, 0.02427913f, -0.93978518f, -0.21481691f, -0.06957512f, -0.38233730f, -0.16192689f, -1.06120443f, -0.18930024f, -0.55523372f, 0.37783361f, 0.21792129f, -0.04038226f, 0.16592082f, -0.27660781f, -0.92250270f, -0.35285208f, 0.47969645f, -0.52907938f, -0.21292161f, 0.46665621f, -0.16692475f, 0.07010815f, 0.09762794f, -0.32182082f, 0.49593622f, 0.41055366f, 0.01411818f, -1.00602472f, -1.29636443f, 0.17681652f, 2.31864357f, -0.07845654f, 0.31443554f, -0.05227284f, -0.62259960f, 0.00412147f, 0.17736298f, 0.24736147f, 0.33453178f, 0.13064851f, 0.58054835f, 0.36359277f, 0.44465435f, 1.03601825f, -0.92765129f, 0.87824202f, -0.44239795f, 0.16703872f, 0.54482681f, -0.82880157f, 0.67224628f, 0.06753711f, 0.81367952f, 0.37014517f, -0.48426569f, 0.10987824f, -0.31810266f, 0.12272573f, 0.39975235f, 0.93458480f, -0.16460523f, -0.03592661f, -0.23142883f, 0.18656497f, 0.78102839f, 1.25071049f, -0.00810165f, 0.18200731f, 0.57195193f, -0.54727209f, -0.39717239f, 0.17685963f, 0.30300331f, -0.16656280f, -0.75752372f, 0.41382316f, -0.08401660f, -0.15303037f, -0.04028530f, -0.13960613f, 0.56478542f, 0.59151024f, -0.45873794f, 0.26762778f, 0.37327161f, -0.02324152f, 0.30310184f, -0.70081133f, 0.54067630f, 0.46833003f, 0.07906608f, -0.33599472f, 0.57357293f, -0.08635591f, -1.49682832f, -0.37059569f, 0.05233408f, 0.35548359f, -0.22161858f, -0.50842780f, 0.05707217f, -0.06894556f, 0.18141413f, 0.06282115f, -0.83126968f, 0.25318334f, -0.65118140f, -0.52210534f, -0.09235506f, 0.48285347f, 0.11075931f, 0.25029203f, 0.18867897f, -0.28318402f, 0.14356533f, 0.12866111f, 0.04631087f, -0.22507955f, 0.16517998f, -0.28165734f, 0.34698382f, -0.36405849f, 0.26007715f, -0.36086831f, -0.36301392f, -0.00817281f, -0.12443674f, -0.38648519f, 0.57470804f, -0.03904054f, -0.29610953f, -0.12087538f, 0.45775449f, -0.02304345f, 0.39183706f, 0.18129879f, 0.33813599f, 0.04816751f, -0.30627093f, 0.20771004f, -0.77890271f, 0.45476225f, 0.95337206f, 1.59976971f, -0.36670154f, 0.02781402f, 0.45638913f, -0.28333801f, -0.09134356f, 0.96947771f, -0.93859476f, 0.64792782f, -0.04317004f, -0.27366254f, -0.04506482f, 0.57507515f, -0.68654430f, -0.46176961f, -0.32184798f, -0.37502092f, 0.60959864f, 0.67572868f, 0.01854676f, 0.60963470f, 0.37754107f, -0.16484977f, 0.16253711f, -0.22683178f, 0.19090337f, 0.23348717f, 0.76905322f, 0.63824123f, -0.15875518f, -0.26779798f, 0.04177838f, -0.01531956f, 0.08322304f, 0.16299438f, -0.11743491f, -0.47420093f, -0.25845599f, 0.20144030f, 0.41805822f, 0.12589198f, 0.30200532f, 0.14729164f, -0.50499833f, 0.05407025f, -0.01207580f, -0.46853113f, 0.69742131f, 0.10388792f, -0.67530966f, -0.26942349f, 0.31842565f, -0.36011013f, -1.12669861f, -0.37873810f, -0.38188133f, -0.20446560f, 0.13765678f, 0.55960709f, -0.20865725f, -0.02773643f, 0.04375913f, -0.26077774f, -0.89168453f, -0.58363014f, 0.11719789f, -0.30185702f, 0.23204801f, -0.40639520f, 0.33018279f, 0.77568269f, 0.80024314f, -0.32280794f, -0.31650788f, -0.25582591f, -0.13914157f, 0.17294927f, 0.88716978f, 0.11236124f, 0.58461696f, -0.22944350f, -0.01214318f, -0.04257968f, -0.61000699f, -0.06496584f, 0.04444999f, 0.22950552f, 0.12836567f, 0.08148877f, 0.73848021f, 0.16677771f, -1.25522435f, -0.09913808f, -0.79409116f, -0.10837913f, -0.22613932f, 0.16118328f, 0.52830899f, 0.21200815f, 0.83221859f, 0.10010157f, -0.09882499f, -0.18082325f, -0.59361142f, -0.19211471f, -0.06959964f, 0.31708169f, -1.36234081f, 0.19578268f, 0.24156702f, -0.12766449f, -0.33573466f, 0.32271630f, -0.59008580f, 0.36509263f, -0.09047144f, 0.08476521f, -0.03056848f, -0.56597769f, 0.38131690f, 0.10460541f, 0.22171477f, 0.28038788f, -0.09499885f, -0.28734475f, -0.02688513f, 0.28657275f, -0.03873584f, -1.22303712f, 0.27985400f, 0.06246939f, -0.00605010f, -0.20686637f, 0.01333051f, -0.53104526f, 0.11439341f, -0.37195656f, -0.04764305f, -0.25713888f, -0.35828108f, 0.18228468f, -0.09572181f, 0.25679773f, -0.26619348f, 0.26630241f, -0.14749576f, -0.13155732f, -0.16453402f, -0.32446223f, -0.42983988f, -0.01347067f, 0.22952197f, 0.28695634f };

static const int conv2_biases_dim0 = 32;
static const data_t conv2_biases[32] = { 1.38078177f, 0.61497229f, -0.09790440f, 0.10951276f, 0.93959510f, -0.36569968f, 0.32815254f, 1.99629569f, -0.51487553f, 0.53359699f, 0.38837066f, 0.47508544f, 0.59879810f, -0.35319760f, -0.34518600f, 0.22966208f, -0.64312279f, 0.03621775f, -0.81974858f, -1.00801730f, -0.80930585f, -0.55046362f, 0.38830507f, -0.99038774f, 0.45829785f, 0.49750188f, -0.83388346f, -0.30828294f, 0.12052306f, -0.67455691f, -0.51636016f, -0.49561849f };

static const int conv2_weights_dim0 = 3;
static const int conv2_weights_dim1 = 3;
static const int conv2_weights_dim2 = 64;
static const int conv2_weights_dim3 = 32;
//static const data_t conv2_weights[3][3][64][32]
static const matrix4D<conv2_weights_dim0, conv2_weights_dim1, conv2_weights_dim2, conv2_weights_dim3> conv2_weights = { 0.33089477f, -0.11042765f, 0.15213439f, -0.01415058f, -0.11011421f, 0.06437800f, -0.33135161f, -0.00003242f, -0.08666942f, -0.24328954f, -0.03188997f, -0.08652610f, 0.08688886f, 0.03496835f, 0.35053956f, -0.09797078f, -0.08602391f, 0.07075738f, 0.22150953f, -0.03252361f, 0.09350189f, 0.01156073f, -0.00696502f, -0.10180295f, -0.22778194f, 0.14805295f, -0.07249760f, 0.03416477f, 0.33878222f, -0.06343120f, 0.07760322f, -0.20737596f, -0.12202806f, 0.01571994f, 0.06005700f, -0.15611158f, -0.37758705f, 0.03755999f, 0.18892518f, 0.03422628f, -0.29731646f, -0.22046627f, -0.17985798f, 0.04431209f, -0.00671670f, -0.11728706f, 0.18887857f, -0.12382937f, 0.26824570f, 0.04515265f, -0.03900873f, 0.04410675f, 0.07124004f, 0.02264462f, 0.07994043f, 0.01471165f, -0.08732915f, 0.20236759f, 0.20572656f, 0.00092294f, 0.00383489f, 0.02378167f, -0.02682677f, -0.09323265f, -0.02442918f, -0.26990998f, -0.08176464f, -0.13310754f, -0.22157790f, -0.20086524f, -0.01073668f, 0.26387948f, 0.08256922f, -0.23487760f, -0.39162317f, 0.27095607f, -0.33956635f, 0.09905127f, -0.16851565f, 0.16226155f, 0.05730288f, 0.02115764f, -0.18201508f, -0.09867164f, 0.15062462f, -0.21309912f, 0.07688033f, 0.19413330f, 0.21993063f, -0.51647276f, 0.15024510f, 0.26071110f, -0.10774670f, 0.03465835f, 0.02322008f, -0.13571587f, 0.39543480f, -0.21070147f, -0.00708826f, 0.09390903f, 0.14520246f, 0.07436688f, -0.08447660f, 0.11853121f, 0.27149952f, 0.05084976f, 0.15331313f, -0.25322160f, -0.09566102f, 0.35507253f, -0.18698327f, 0.10065418f, 0.06815341f, 0.15611850f, -0.12323272f, -0.12535018f, 0.02241991f, -0.41369069f, 0.05177969f, 0.23893276f, -0.05363208f, 0.16918249f, 0.29041976f, 0.15661953f, -0.05615078f, 0.26424497f, -0.08533191f, -0.21901120f, 0.15842815f, 0.22654402f, -0.21290323f, -0.14044121f, -0.06780420f, -0.10506615f, 0.24148229f, -0.11156782f, -0.26115829f, -0.36469486f, -0.02892717f, 0.08611996f, -0.14151822f, -0.16418560f, 0.19284916f, -0.10088988f, -0.11981966f, -0.18087247f, 0.01550540f, 0.48493278f, -0.03301487f, -0.11857893f, -0.15779911f, -0.24041577f, 0.03935812f, 0.13016599f, -0.06261694f, -0.27786976f, 0.08046451f, -0.43353328f, 0.04453680f, 0.08519834f, -0.12150822f, -0.29527202f, -0.02626890f, -0.34012270f, -0.11951878f, 0.07112672f, -0.13702810f, -0.30633926f, 0.08505103f, -0.26171202f, 0.29532123f, 0.14276728f, -0.06602626f, 0.12725623f, -0.07440460f, -0.05824481f, -0.06317737f, 0.30377287f, -0.46902263f, 0.19253580f, -0.20417422f, 0.06327023f, 0.19532379f, -0.25849706f, -0.18147168f, -0.05208991f, 0.09351140f, -0.05903331f, 0.24508004f, 0.13473764f, 0.08108200f, 0.13149844f, -0.39754957f, 0.29697701f, -0.15886976f, -0.07529575f, -0.10847874f, -0.36827654f, 0.16992822f, 0.60050064f, -0.06149137f, -0.49158585f, -0.20135397f, -0.09483825f, -0.10254216f, 0.17069653f, -0.07856531f, -0.16718441f, -0.00439888f, -0.01616771f, -0.03860134f, -0.03349961f, -0.10319193f, -0.13990264f, -0.27968040f, -0.02845581f, 0.25313714f, 0.11674695f, -0.35753101f, -0.03711719f, -0.19283164f, -0.02023407f, 0.62779933f, 0.06856965f, 0.02207537f, 0.03960257f, 0.03120127f, 0.21914019f, -0.07025863f, -0.09084062f, 0.15416794f, 0.00514879f, -0.13537683f, 0.22018492f, 0.28609544f, -0.07995997f, -0.17794982f, 0.01600728f, 0.09363208f, 0.07630281f, 0.36050034f, 0.06924852f, 0.04569577f, -0.05068766f, -0.26048636f, 0.14467250f, -0.18897206f, -0.00609319f, 0.18991490f, -0.19028702f, -0.00540048f, -0.29565853f, -0.02550229f, -0.16125342f, 0.03557473f, 0.03543343f, -0.25632983f, 0.05296754f, -0.09661245f, 0.05799627f, -0.22632754f, -0.20882163f, -0.15015921f, 0.03129950f, 0.04251272f, -0.01486130f, -0.00241196f, -0.18122046f, -0.08370329f, -0.15809531f, -0.18491337f, 0.02666139f, -0.27099535f, -0.38876456f, 0.06917492f, -0.03792205f, 0.14885217f, -0.11184041f, 0.04657653f, 0.07924838f, -0.02962694f, 0.11337005f, -0.39153761f, -0.22916764f, 0.11911043f, -0.11618962f, 0.05049871f, 0.33378646f, -0.37533325f, 0.00571927f, -0.26851436f, 0.04745540f, -0.25303477f, -0.00529067f, 0.20643801f, 0.13044392f, -0.00696824f, 0.03993555f, -0.50583482f, 0.00862837f, 0.18807778f, -0.18074261f, -0.10166245f, 0.01761306f, -0.07852636f, -0.26403281f, 0.15191694f, -0.30078751f, -0.08066351f, -0.16227879f, -0.29278988f, 0.11687630f, 0.03151048f, 0.06225025f, -0.41320863f, 0.10415069f, -0.00165948f, 0.21541884f, -0.08564936f, 0.30392903f, -0.09168554f, -0.06569323f, -0.06996381f, -0.07365151f, -0.10196852f, -0.21603826f, 0.11437157f, -0.17142409f, -0.00746443f, 0.35075805f, 0.03964314f, -0.14427750f, 0.08507963f, -0.31201103f, -0.10722189f, 0.27163106f, -0.00966405f, -0.04638929f, -0.06007656f, 0.26245630f, 0.04056903f, 0.29724997f, 0.14751211f, 0.15019555f, -0.39826471f, -0.02228918f, 0.01718864f, -0.20479868f, -0.03907086f, -0.04546806f, 0.20371896f, -0.36025369f, -0.14492163f, 0.04680926f, 0.02599468f, 0.13204503f, -0.26355216f, 0.08576921f, -0.04829743f, -0.13264500f, -0.14646348f, 0.13886824f, 0.04650983f, 0.01443275f, -0.06670259f, 0.06598791f, 0.13754743f, -0.11363207f, -0.24423601f, 0.02307210f, 0.06822097f, -0.13943623f, -0.10825165f, -0.02069435f, -0.19842719f, -0.26464835f, -0.40708813f, -0.04847965f, 0.06111063f, -0.15752189f, -0.03137248f, -0.14034256f, -0.10740021f, 0.18322094f, -0.12008101f, 0.09278639f, 0.11521777f, 0.00152577f, -0.10349283f, -0.03373065f, 0.22623144f, -0.00868703f, -0.07739195f, -0.02463942f, -0.08830142f, 0.06993634f, -0.07701308f, -0.21664680f, -0.05214702f, 0.15505128f, -0.01347448f, -0.16171157f, 0.25983465f, -0.25107905f, 0.04376780f, 0.06404677f, -0.08176845f, -0.11358520f, -0.00615775f, 0.03911573f, -0.39145812f, 0.01283679f, 0.32979795f, 0.15029475f, -0.21988487f, 0.56466496f, -0.16275191f, -0.12209786f, -0.06850532f, -0.01775389f, -0.30108544f, 0.32329199f, 0.01164007f, 0.20552815f, -0.01383249f, 0.01150480f, 0.07976462f, -0.05391841f, 0.07404315f, -0.05096402f, -0.06989361f, -0.26377648f, 0.13989720f, 0.13315202f, 0.02730448f, -0.04537622f, 0.30958757f, -0.14603932f, -0.16052538f, 0.10719439f, 0.11096589f, 0.02117181f, 0.03635502f, -0.08652016f, 0.26404354f, 0.16290949f, 0.15974793f, -0.15877229f, -0.08015434f, 0.17735834f, 0.04879409f, 0.22289535f, 0.09231606f, 0.04217296f, 0.35003462f, -0.12144591f, -0.21104582f, -0.39320433f, -0.02477435f, -0.02475755f, -0.05222585f, -0.08145533f, 0.10746266f, -0.26569048f, -0.19655813f, 0.28822806f, -0.04242202f, -0.21899641f, 0.04046809f, -0.03649470f, 0.27478689f, 0.24341692f, 0.27354822f, -0.01905509f, 0.18414190f, 0.02293372f, 0.09543172f, -0.08973437f, 0.10736677f, -0.16457579f, 0.46082142f, 0.38082388f, 0.21918400f, 0.31935266f, -0.18341509f, 0.18908313f, -0.12777075f, 0.27665389f, -0.05771055f, 0.36618999f, 0.46220472f, -0.40729317f, 0.23671427f, -0.05506234f, 0.14902595f, -0.15354206f, -0.07880730f, 0.25572926f, 0.03378956f, -0.04000067f, -0.10354024f, -0.10760339f, 0.01394424f, -0.12481613f, -0.02201185f, 0.13193309f, -0.21483208f, -0.44607449f, 0.07008864f, 0.23010106f, 0.10850938f, -0.23161545f, 0.05179854f, 0.07927012f, -0.26877248f, 0.14718343f, -0.48670044f, 0.14556594f, 0.15006250f, 0.04945901f, 0.16173801f, -0.22948758f, -0.08735012f, -0.00389856f, 0.15219867f, 0.18892096f, -0.13278529f, -0.16501172f, 0.04839666f, 0.27292791f, 0.00108429f, 0.13388635f, 0.18953775f, -0.04154420f, 0.05752515f, 0.12441608f, -0.06534108f, -0.09883036f, 0.04361475f, 0.19987416f, -0.01629637f, -0.08351183f, 0.05008573f, 0.12373275f, -0.08169783f, 0.07864416f, 0.19988550f, -0.29910398f, 0.17476068f, 0.02894998f, 0.27672929f, -0.16314024f, 0.03705582f, 0.04255506f, 0.19077915f, -0.10073408f, 0.04327963f, -0.00773077f, 0.20479386f, -0.02859901f, -0.00293133f, -0.30943391f, 0.18388087f, 0.22960247f, 0.01515321f, -0.00461238f, 0.04575375f, 0.11667770f, 0.08293401f, -0.27589369f, 0.11611539f, -0.04947428f, -0.02580613f, 0.24492346f, 0.41682595f, 0.02943089f, -0.11244537f, 0.05422267f, -0.02472596f, 0.04891833f, 0.02905792f, -0.10796628f, 0.04071586f, -0.11685920f, -0.18069603f, -0.28243256f, 0.38015196f, -0.03042476f, -0.07760731f, 0.29355514f, -0.04291638f, 0.11932352f, 0.08986830f, 0.02898486f, -0.37108475f, -0.00461499f, 0.01217101f, -0.03394295f, -0.05930790f, 0.19043879f, -0.23777138f, 0.00421575f, 0.02286290f, 0.09111565f, -0.07586117f, -0.23426349f, -0.09298851f, -0.10716395f, -0.24306995f, 0.00483242f, -0.06621171f, -0.26091564f, 0.04147511f, 0.09959944f, -0.07834265f, 0.04205341f, 0.00438648f, 0.03221527f, -0.06204623f, 0.01272183f, -0.09031127f, -0.13818815f, -0.19797409f, -0.27122727f, 0.05907244f, 0.34289682f, -0.06834041f, -0.28473932f, 0.09542498f, 0.21148793f, 0.05822769f, -0.01144445f, -0.05328267f, 0.07205033f, -0.13504875f, -0.02437190f, 0.05724982f, -0.25284109f, -0.36987576f, -0.05926045f, 0.17494304f, 0.18391314f, 0.12692823f, -0.22541411f, -0.03111638f, -0.08373559f, -0.22297613f, -0.03579070f, -0.09945281f, -0.35279441f, 0.16825444f, -0.12567084f, 0.05457312f, 0.04796924f, 0.25637969f, -0.22498187f, -0.35103110f, 0.23074296f, 0.28729093f, -0.15855084f, 0.07227284f, 0.02979827f, 0.25247788f, -0.04218811f, -0.08698466f, -0.03472275f, -0.00841152f, 0.01916272f, 0.01013453f, -0.23812754f, 0.04695091f, 0.11131499f, 0.08115938f, 0.08153439f, -0.03547530f, 0.05267214f, -0.50670987f, -0.04293501f, -0.05340878f, 0.15853649f, 0.38730162f, 0.25558627f, 0.03727669f, 0.15219446f, -0.12430263f, -0.16985872f, -0.07069883f, -0.08957071f, -0.06567422f, -0.35782817f, -0.03315206f, -0.03419650f, 0.17986123f, -0.34563693f, 0.07660107f, 0.08966655f, 0.02752774f, 0.07040012f, -0.09760180f, 0.02541388f, 0.22283238f, -0.00643720f, -0.05683719f, 0.43256789f, 0.19943497f, 0.08397453f, 0.27149001f, -0.31021372f, -0.09752852f, 0.04300219f, 0.23278804f, 0.16935828f, 0.06976391f, -0.34635225f, 0.26943839f, 0.04613467f, 0.12190864f, -0.06796730f, -0.09507490f, -0.02659530f, 0.08934194f, -0.08343729f, -0.17922255f, -0.13626669f, 0.15332121f, 0.26660413f, -0.33965197f, 0.08782996f, 0.08651417f, 0.31195432f, 0.07809716f, -0.25869957f, -0.10855082f, 0.33792466f, 0.30405164f, -0.03789297f, 0.07152189f, -0.28276992f, -0.10335441f, -0.27867705f, -0.19588351f, 0.09032753f, -0.52263504f, -0.16906044f, -0.17058819f, 0.11704770f, 0.13783859f, 0.11511019f, 0.04006593f, 0.02324391f, 0.04874891f, -0.23526625f, -0.08175371f, 0.15044840f, 0.04341711f, -0.22418532f, -0.05701818f, -0.16268200f, -0.25690484f, -0.07384185f, -0.10468595f, -0.03964311f, 0.00567508f, -0.04425543f, -0.01245722f, 0.17527579f, -0.25268713f, 0.02183138f, -0.51101333f, -0.08939195f, -0.25459504f, -0.07466960f, -0.58876056f, 0.07930907f, 0.12931244f, -0.29545459f, -0.11502494f, 0.56501436f, -0.13178821f, -0.11901861f, 0.03099633f, 0.24520561f, -0.44568121f, 0.19486752f, -0.25117904f, -0.24374512f, -0.08318722f, 0.10124559f, -0.07106977f, -0.10900386f, 0.15251997f, -0.22935577f, -0.14028743f, -0.18017811f, 0.06255849f, 0.24395748f, 0.11717986f, 0.33983645f, -0.19939099f, -0.17577174f, 0.23512723f, 0.09956156f, 0.19893472f, 0.09887717f, -0.36569196f, -0.07848708f, 0.25748119f, -0.29254627f, 0.02866667f, -0.48741996f, 0.23887652f, -0.08201458f, 0.21975824f, -0.13397043f, 0.14035459f, 0.05798553f, 0.47215885f, 0.00757909f, 0.00160295f, 0.01778401f, -0.16309427f, 0.10430733f, 0.05436205f, -0.12901477f, -0.12247597f, 0.11344223f, 0.23035176f, -0.04279262f, 0.32500693f, -0.32111627f, 0.06602917f, -0.18524869f, -0.31497180f, -0.02916335f, -0.10904013f, -0.09923916f, 0.25377053f, 0.27437669f, -0.08399925f, 0.01979506f, -0.07028247f, 0.19282637f, 0.10209376f, -0.01274270f, 0.33366141f, 0.11542198f, -0.19004606f, -0.14462626f, -0.03141825f, 0.02595817f, 0.02239277f, 0.09728450f, -0.20193845f, 0.12364683f, -0.14698158f, -0.10135455f, -0.13884878f, 0.04866812f, -0.21798478f, 0.16883120f, -0.12880488f, 0.05690937f, 0.25910667f, -0.42839810f, 0.02602481f, -0.00161159f, 0.02373962f, -0.17331776f, -0.08240683f, 0.00872114f, -0.44541177f, 0.06229267f, 0.01970273f, 0.06713249f, -0.26871756f, 0.17993493f, -0.37030518f, -0.15291426f, -0.11116704f, 0.10178707f, -0.15252146f, -0.12949121f, 0.00862552f, 0.12613879f, -0.10139624f, -0.39268303f, 0.34278843f, -0.08132730f, 0.02454863f, 0.27309051f, 0.09921914f, 0.42906839f, 0.02016792f, 0.18461253f, -0.03782772f, -0.25454927f, 0.03116765f, -0.10958418f, 0.05120170f, 0.04550241f, -0.24133298f, 0.01003788f, 0.18556233f, -0.06064567f, -0.34050000f, 0.02588792f, 0.12238800f, -0.17347556f, 0.03581717f, 0.10739726f, -0.04987309f, -0.08665711f, 0.32334122f, 0.16609226f, 0.19315225f, 0.30705506f, -0.14864396f, 0.03174699f, -0.02769303f, 0.05221292f, 0.05891837f, 0.08175623f, -0.13193546f, 0.34309679f, -0.07294620f, -0.21884215f, 0.01311829f, -0.25106099f, -0.01850593f, -0.09098755f, 0.01582902f, 0.21795884f, 0.02786550f, -0.21919206f, 0.16886592f, 0.16834465f, -0.05599190f, -0.14059372f, -0.10396544f, -0.08320367f, 0.13242809f, 0.04336969f, 0.02636831f, -0.12253191f, 0.31300476f, 0.17646387f, -0.10182138f, -0.13451961f, -0.01906345f, 0.28469193f, 0.03972848f, 0.08581317f, 0.03633668f, -0.05472276f, 0.12691414f, -0.11439442f, -0.12548172f, -0.38380539f, 0.19382191f, -0.17985529f, -0.09358872f, -0.11056009f, 0.07023443f, 0.12716050f, -0.39074311f, -0.08548415f, 0.02795964f, 0.00803041f, 0.40629295f, -0.33165920f, -0.26967555f, 0.42136154f, -0.12948608f, 0.03175202f, 0.09254476f, 0.02317262f, -0.18057942f, -0.13038084f, -0.05598695f, 0.09638749f, 0.15609022f, -0.16287565f, 0.28849495f, 0.24710757f, 0.03638256f, -0.09701357f, 0.13511850f, 0.19128548f, 0.08817794f, 0.09791958f, -0.04001367f, 0.31135148f, -0.05220480f, -0.04392117f, 0.35305232f, -0.33686340f, 0.05683368f, 0.16838305f, 0.07344779f, -0.16269755f, 0.08166479f, -0.00072196f, 0.19414002f, -0.10004081f, -0.02152782f, 0.12213952f, -0.17922869f, -0.11672585f, -0.30571172f, 0.00002881f, 0.06141819f, 0.31920499f, -0.02723657f, -0.12834719f, -0.16141137f, 0.04734112f, 0.18962868f, 0.21218534f, -0.18556200f, 0.13604194f, 0.04736764f, 0.04000369f, -0.14284156f, 0.18975374f, -0.40472224f, -0.04072257f, -0.02593061f, 0.01526898f, -0.16852312f, -0.07395591f, -0.15480018f, 0.20294569f, 0.19080748f, -0.25672382f, 0.07683603f, 0.11680151f, 0.09117376f, -0.25971055f, -0.04574707f, 0.11774467f, -0.16596767f, -0.08739974f, 0.04019451f, -0.07556438f, 0.06446375f, -0.26242948f, -0.03722093f, 0.31262767f, 0.18963717f, 0.16765290f, 0.12010922f, 0.04433842f, 0.23769534f, 0.08252055f, -0.13582556f, 0.31031007f, -0.17682876f, 0.34313473f, 0.24234222f, 0.05672231f, -0.03370130f, 0.06482171f, 0.10984112f, 0.44752958f, 0.03963750f, -0.00291406f, 0.21501237f, 0.10230490f, -0.34752470f, 0.10282564f, -0.13855007f, -0.02526867f, -0.01417415f, -0.16222024f, 0.16380742f, -0.02944288f, -0.06352142f, -0.05289362f, -0.06203107f, -0.06857959f, 0.09586596f, 0.12680095f, 0.03776467f, -0.12410217f, -0.05387808f, -0.07304902f, 0.15509763f, 0.04217139f, 0.17073162f, 0.29828545f, -0.03990634f, -0.36751157f, 0.04313981f, 0.23151949f, -0.19022033f, -0.02622469f, 0.17409801f, 0.01199862f, -0.07963593f, -0.01578304f, -0.02373604f, 0.11173767f, -0.02345937f, -0.07047265f, -0.02938542f, 0.02455103f, -0.10795288f, -0.00565688f, 0.18725051f, 0.19831009f, 0.15929547f, 0.29578662f, -0.39851534f, 0.13000798f, 0.10075895f, 0.01551858f, 0.23189257f, -0.07890742f, 0.37092930f, -0.09849749f, -0.01293811f, 0.32702366f, 0.03365039f, 0.11088701f, -0.21484700f, 0.07954157f, -0.00009819f, 0.12551974f, 0.30505437f, 0.32962242f, 0.20607799f, -0.02669809f, 0.09465659f, -0.04562361f, -0.29759535f, 0.24079089f, -0.00603076f, -0.11695456f, 0.00966260f, -0.26486060f, 0.04125661f, -0.24350925f, 0.03978602f, 0.15348874f, -0.11987520f, -0.01704875f, -0.07518796f, 0.08789507f, 0.22693634f, 0.09418016f, -0.23351041f, -0.06223840f, -0.04360492f, 0.13388386f, -0.18845949f, 0.39089295f, -0.16303812f, 0.14794096f, 0.00124678f, 0.00766120f, -0.27997103f, -0.52208966f, 0.07831578f, -0.15507703f, 0.21777962f, -0.04825936f, 0.07060699f, -0.25503805f, 0.08485200f, 0.57621956f, -0.14833067f, -0.12976548f, 0.07385475f, 0.00612016f, 0.02805912f, -0.04344350f, -0.00819965f, -0.12509385f, 0.22205418f, -0.13550958f, 0.12402461f, 0.03148024f, 0.06744503f, -0.29990289f, -0.09946805f, -0.08932699f, 0.15044258f, -0.22663643f, 0.01427130f, 0.09779842f, 0.01627777f, -0.11507393f, -0.04556481f, 0.19195792f, -0.01629591f, 0.02949765f, -0.11954667f, 0.07513960f, -0.04713213f, 0.02335492f, 0.15067911f, 0.04746876f, 0.02999397f, 0.56356680f, 0.21128580f, -0.16783470f, 0.24015291f, -0.24922550f, 0.16603629f, -0.22350943f, 0.19864050f, -0.25626516f, -0.24405153f, -0.04025690f, 0.16721317f, 0.17030024f, 0.02515082f, 0.18466470f, 0.19579357f, 0.02235820f, 0.12374519f, -0.02733845f, -0.03842253f, -0.18441267f, -0.04565020f, -0.08598199f, 0.13982716f, 0.14584865f, 0.05687755f, -0.03695060f, 0.10047388f, -0.43659285f, 0.08571737f, -0.18297273f, 0.05554582f, 0.36929759f, -0.15839405f, -0.12455567f, 0.19575487f, -0.30240428f, 0.02667767f, -0.10115665f, -0.20414080f, -0.04076069f, 0.63130277f, -0.14481193f, 0.20726091f, 0.13633636f, 0.09604552f, 0.18028939f, 0.05732039f, 0.20317516f, -0.01540467f, -0.07340844f, 0.02495597f, 0.03675847f, -0.54948521f, -0.21384250f, -0.14920150f, -0.41162088f, -0.22092645f, -0.11736215f, -0.08308923f, -0.23854964f, 0.03389914f, 0.40379307f, -0.13026956f, 0.16307677f, -0.09415070f, 0.13207325f, 0.03795348f, 0.03058366f, -0.41835061f, 0.01917667f, 0.30655190f, 0.10410187f, 0.07132812f, -0.07494750f, -0.14558737f, -0.27525052f, -0.04370429f, -0.05948683f, 0.05020187f, 0.00419416f, -0.06818109f, -0.09164177f, -0.04448438f, 0.14663182f, -0.05720127f, -0.36438188f, -0.02946071f, 0.02996958f, 0.02848852f, 0.06993300f, -0.09362584f, 0.17345923f, -0.19517198f, -0.30775115f, -0.00493405f, 0.02849157f, 0.24780420f, 0.13935337f, 0.11510286f, 0.06309677f, 0.13216782f, -0.13403440f, -0.09333978f, 0.29907331f, -0.12668736f, -0.00378329f, 0.12914483f, -0.13715075f, 0.05500400f, -0.12281868f, 0.05528887f, 0.14129192f, -0.23948646f, 0.44655344f, 0.24995667f, 0.09149227f, -0.00929691f, 0.06671993f, 0.28315994f, 0.07720224f, -0.03458941f, 0.24272044f, 0.22929892f, 0.11110377f, 0.18644375f, 0.28442004f, -0.11422299f, 0.09802116f, -0.17890267f, 0.09466606f, -0.06328727f, -0.07280034f, -0.16520335f, 0.11200828f, -0.04011904f, -0.44252613f, -0.03385260f, -0.12599538f, 0.23060840f, 0.11993333f, 0.05824087f, 0.10274386f, 0.28755331f, -0.01507875f, -0.32122275f, -0.00349877f, -0.23458576f, -0.12879553f, 0.02094155f, -0.16919391f, 0.04277863f, -0.01373183f, -0.02903943f, 0.10090310f, 0.04530172f, -0.26952508f, 0.07506363f, 0.04765077f, -0.12465944f, 0.15129258f, 0.27111879f, 0.18437134f, 0.04498557f, -0.13051173f, 0.05335095f, -0.03158530f, -0.02542866f, 0.01436546f, 0.49067599f, 0.12517159f, -0.13673507f, -0.03772915f, 0.23481587f, -0.12441514f, 0.06496983f, 0.08887583f, -0.09837433f, 0.36305666f, 0.15096881f, 0.31621388f, -0.00684089f, -0.17399886f, -0.02411686f, 0.04583778f, -0.11117664f, -0.15293755f, -0.01576988f, -0.24531612f, -0.05657675f, -0.14723225f, -0.24141204f, -0.19133642f, 0.12861192f, -0.16105162f, -0.70564723f, -0.06814184f, 0.01716977f, -0.28385824f, -0.05620052f, 0.26449570f, -0.17790303f, 0.46011180f, 0.03609866f, 0.19102937f, -0.10146361f, -0.20380901f, 0.22245140f, 0.05997894f, -0.23539674f, 0.01637098f, 0.07600588f, 0.21437426f, 0.14765954f, 0.11750901f, -0.35626811f, 0.24105515f, -0.17956555f, -0.08023848f, -0.19461830f, -0.01313032f, 0.20636247f, 0.12303141f, -0.08146602f, 0.05332082f, -0.03843201f, 0.01341618f, 0.06911720f, 0.01726627f, -0.07306653f, -0.08809923f, -0.02795768f, 0.12904123f, -0.12889424f, 0.14671914f, 0.06618084f, -0.24593498f, -0.08251763f, -0.23207595f, 0.08646561f, -0.03665038f, 0.05392570f, 0.03412008f, 0.17149582f, 0.00408032f, -0.04280048f, 0.05995918f, 0.09037285f, 0.08519842f, -0.20826670f, 0.27636665f, -0.12654670f, -0.25297826f, -0.14256833f, 0.30644035f, 0.13362321f, 0.00282663f, -0.04964120f, -0.09904181f, -0.16572577f, 0.07805803f, 0.16051237f, 0.10008574f, 0.03413620f, 0.21204154f, 0.04678825f, -0.10307559f, -0.10450810f, -0.04449834f, -0.26317048f, 0.28668532f, -0.33060926f, 0.02626803f, -0.54049695f, 0.04392888f, -0.23248690f, -0.07238814f, -0.15153626f, -0.27214646f, -0.30605790f, -0.35173938f, -0.30645862f, 0.02222884f, -0.38887206f, -0.03373871f, 0.35913745f, 0.52902752f, 0.05115060f, -0.05953206f, -0.08195515f, 0.13485828f, 0.05403607f, 0.13756214f, 0.04055343f, -0.05023834f, 0.21404019f, 0.21959786f, 0.16563858f, 0.29013762f, 0.06691337f, -0.75454599f, -0.19667664f, -0.23128645f, 0.09742653f, -0.05742765f, -0.13856153f, 0.02532316f, -0.18525919f, -0.05940796f, 0.02258608f, -0.08237754f, -0.02978136f, -0.09029350f, -0.13908705f, -0.00473853f, 0.04930682f, 0.13103911f, 0.11652005f, -0.07896405f, -0.37294382f, 0.08412807f, 0.14727732f, 0.14414057f, -0.29475284f, 0.13717604f, 0.30992770f, 0.12001479f, 0.27975360f, 0.06667004f, -0.18278043f, -0.02872322f, -0.02315054f, -0.09168904f, -0.02295831f, 0.00856230f, 0.05824286f, 0.13228182f, 0.06089536f, 0.06221015f, 0.13713191f, -0.03321269f, -0.04163484f, 0.02859381f, 0.11477672f, -0.14862835f, -0.19412921f, -0.07586811f, -0.06545256f, 0.11241171f, -0.32252428f, 0.07453866f, 0.35819653f, -0.07036664f, 0.12967606f, -0.16509746f, -0.03659404f, -0.25151277f, -0.04565046f, -0.08928354f, -0.04872083f, 0.00436968f, -0.08523380f, 0.05334836f, 0.07329585f, -0.31300840f, 0.16045341f, 0.27135193f, 0.11809364f, -0.06939653f, -0.06349421f, 0.03719486f, -0.11285738f, 0.13043642f, -0.00992627f, -0.22187959f, 0.18454951f, 0.35300109f, -0.23973951f, -0.10251719f, 0.02524784f, 0.00167728f, -0.27533376f, 0.04998314f, 0.05335111f, 0.18149862f, -0.09479881f, 0.04687738f, -0.01802377f, 0.07975025f, 0.08475194f, 0.05383794f, 0.12561742f, 0.15952441f, -0.15775122f, 0.10425060f, -0.31648794f, 0.36788276f, -0.21514934f, -0.05930634f, 0.15250520f, 0.03123106f, -0.32867497f, -0.09154114f, -0.19658291f, 0.10041990f, 0.28012893f, 0.04501321f, -0.15943564f, 0.16083399f, 0.21438014f, 0.14949568f, -0.09207100f, 0.00048502f, -0.09584229f, 0.07491401f, -0.23126124f, -0.16243029f, -0.06423946f, -0.09684909f, 0.05483272f, -0.30808708f, 0.16395189f, 0.42978018f, -0.20312431f, -0.05890862f, -0.07281417f, 0.02109652f, -0.02445560f, -0.08367108f, -0.22794288f, 0.29272607f, -0.12271275f, -0.04166871f, -0.18653151f, -0.06502325f, -0.27756262f, 0.15405898f, -0.04609849f, 0.01744137f, -0.40064034f, 0.14511144f, -0.61145258f, -0.05285081f, -0.04073783f, -0.03654271f, -0.15814617f, -0.03668010f, -0.10047512f, -0.07201036f, -0.08489347f, -0.14181493f, 0.12930308f, -0.07397832f, 0.00537009f, -0.08338619f, -0.00712369f, 0.37563703f, -0.09311663f, 0.07185426f, -0.21414088f, -0.45694187f, 0.06267151f, 0.21880570f, 0.63132352f, 0.23509114f, -0.04653165f, 0.18172808f, -0.14637719f, 0.39351147f, -0.00023099f, -0.22576492f, -0.09671061f, -0.02511517f, 0.17407242f, -0.17524053f, -0.17823815f, 0.10103501f, -0.10030785f, 0.07509701f, 0.17881820f, -0.50770128f, -0.07906464f, -0.00194468f, 0.05745225f, -0.31217200f, -0.05322524f, -0.12114467f, -0.21147566f, 0.27282438f, -0.13637485f, -0.14631823f, -0.23235311f, 0.12739783f, 0.15323019f, 0.44377291f, -0.18756023f, 0.19812517f, 0.33125925f, -0.03335492f, 0.36310771f, 0.18487911f, 0.02576182f, -0.28453362f, -0.05760254f, 0.25498915f, -0.22835115f, -0.06244902f, 0.16350916f, -0.14328545f, 0.12311968f, -0.19633880f, 0.15735121f, 0.02655515f, 0.14965932f, -0.07884072f, -0.15508848f, -0.36944646f, -0.15004617f, -0.17507815f, 0.07638631f, 0.24232873f, 0.00891156f, 0.04228551f, 0.07804611f, -0.09205879f, 0.00447558f, -0.10989113f, 0.45286101f, -0.51628172f, -0.01273641f, 0.52713060f, -0.25593188f, 0.13966808f, -0.14948487f, 0.01760847f, 0.42412531f, 0.03458756f, 0.26973364f, -0.11289772f, -0.01545807f, -0.08784651f, 0.28218746f, -0.29710871f, 0.15015669f, -0.18447772f, -0.20345242f, -0.45026621f, 0.39772496f, -0.28839520f, 0.29722425f, -0.14402288f, -0.05391196f, -0.07324331f, -0.08166999f, -0.17916796f, -0.04015791f, 0.42379931f, -0.31092915f, 0.02178256f, 0.03173949f, 0.01701767f, 0.06329520f, -0.08127307f, -0.33801568f, -0.17181891f, 0.23729059f, 0.35017201f, -0.01222442f, -0.22301125f, -0.07991182f, -0.02972420f, -0.02743384f, -0.06818383f, -0.72347629f, -0.33125034f, -0.33627793f, -0.34266433f, 0.01222761f, -0.14975654f, -0.21127813f, -0.12814984f, 0.11890273f, -0.00357559f, -0.19740032f, 0.33553329f, 0.09106617f, 0.00381009f, 0.11698834f, 0.19736293f, 0.05516460f, 0.01609390f, -0.02797330f, -0.06446832f, 0.17811494f, -0.20647392f, 0.15389132f, 0.11529952f, -0.18287450f, -0.13715543f, -0.19415083f, -0.00206927f, -0.04252277f, -0.40486488f, -0.01019333f, -0.13718948f, -0.17546092f, -0.00873631f, 0.05155635f, -0.20813537f, -0.16213039f, -0.07285633f, -0.13401888f, -0.02010286f, 0.07161105f, 0.19890092f, -0.01022566f, -0.02659285f, 0.33843976f, -0.47470439f, -0.08950511f, 0.13769914f, -0.16236511f, -0.29305938f, -0.05798345f, -0.16785087f, 0.10976322f, 0.07365713f, 0.00954531f, 0.28537121f, 0.27187723f, 0.32022828f, -0.10838856f, 0.34147215f, 0.11590236f, -0.31927946f, -0.30941999f, -0.02238205f, -0.21753442f, -0.29685497f, 0.10852736f, -0.00758863f, -0.13486226f, -0.10797367f, 0.11175532f, -0.12859993f, -0.00221516f, -0.09817041f, -0.11653672f, 0.18613762f, -0.07132152f, 0.08830553f, 0.04389178f, -0.02277212f, 0.20940080f, 0.03873115f, -0.36829597f, 0.13821748f, -0.31289494f, -0.22742753f, 0.12443515f, -0.43581477f, -0.37409294f, -0.50112361f, 0.14567357f, 0.10039067f, 0.08917892f, -0.16835335f, 0.12842408f, -0.14538184f, 0.08751850f, -0.02864236f, 0.40817758f, -0.25725812f, -0.14371581f, -0.03348769f, -0.02185879f, 0.09766281f, 0.00793511f, -0.06037065f, -0.07773396f, -0.13290238f, 0.48961571f, -0.15873577f, 0.08313096f, -0.05223771f, -0.10639612f, 0.07420409f, -0.26961973f, 0.06810635f, 0.07767237f, -0.19611868f, -0.09501837f, 0.00497333f, 0.11277389f, -0.07011808f, -0.24033467f, 0.03796848f, -0.14030875f, 0.19438241f, 0.18942293f, -0.13089281f, 0.12625477f, 0.04009011f, -0.05893959f, -0.16952375f, -0.16791314f, 0.15375175f, 0.06925548f, 0.39295903f, -0.09013741f, -0.15125409f, 0.04636399f, -0.13719024f, -0.06938697f, -0.02545006f, 0.39949417f, -0.06291649f, -0.02050334f, 0.14471951f, 0.02446688f, 0.02318821f, -0.07413565f, 0.07339232f, 0.13525800f, 0.39095655f, 0.02813320f, 0.06902958f, -0.05119830f, -0.04883967f, -0.01475458f, -0.04106313f, 0.04724213f, -0.15881400f, -0.35848385f, 0.00903533f, -0.05373272f, 0.13068892f, -0.27367243f, 0.09502201f, -0.03814249f, 0.23785649f, -0.17453861f, 0.17883672f, -0.07285475f, -0.26803112f, 0.05587466f, 0.00637216f, 0.05080707f, 0.18991427f, -0.09193940f, 0.25291354f, -0.04317806f, -0.19059908f, -0.14649908f, -0.09139629f, -0.40588635f, 0.15338547f, -0.05804198f, 0.41311407f, -0.05750241f, -0.05738775f, -0.00556769f, -0.05601472f, -0.00511652f, -0.13485467f, 0.09240167f, 0.03387737f, -0.33447433f, -0.10696333f, 0.12303627f, 0.23541273f, -0.02954061f, -0.19247773f, -0.55336624f, 0.06599405f, -0.05388559f, -0.29549405f, 0.14444806f, 0.21565326f, 0.02115723f, 0.05098363f, 0.13095003f, 0.16773003f, -0.13000634f, -0.02926134f, -0.40280658f, 0.01209055f, 0.11545581f, -0.12337691f, -0.33595756f, -0.39223340f, -0.04166323f, 0.22226083f, -0.16530497f, -0.14377295f, 0.03045570f, -0.02561354f, -0.01062185f, -0.07794345f, 0.14475165f, -0.32359880f, 0.05584325f, -0.31139234f, 0.05905038f, 0.15304224f, -0.30438942f, 0.11021489f, -0.10491284f, 0.22170816f, 0.25109777f, -0.05475186f, 0.10164051f, -0.09718820f, -0.01601684f, -0.13660382f, 0.05650196f, -0.21918176f, -0.26453859f, 0.00857839f, -0.09466724f, -0.09827426f, 0.11156373f, 0.13021368f, 0.23590140f, 0.09498345f, -0.08696511f, 0.14730077f, 0.07975900f, -0.24699952f, 0.10933109f, -0.07959992f, -0.08421902f, 0.01873220f, -0.05948789f, -0.15630877f, 0.25161946f, 0.06462095f, 0.05854325f, -0.14707650f, 0.04058759f, 0.00162742f, 0.11674444f, -0.01027163f, -0.15353394f, 0.02325476f, 0.18460721f, -0.10045850f, 0.05477889f, 0.19739221f, 0.28277257f, -0.13621211f, -0.24323636f, -0.06990700f, -0.18298505f, -0.06510964f, -0.16392906f, 0.16058394f, -0.06012568f, 0.05993554f, 0.09609579f, 0.05233634f, 0.12418585f, 0.10341054f, 0.08044925f, -0.31314927f, 0.07658485f, 0.08120681f, 0.01626145f, 0.27318910f, -0.28404182f, 0.01661443f, -0.05778240f, -0.05371980f, -0.62108064f, -0.03605192f, -0.20550320f, -0.11185852f, -0.37007779f, 0.00908450f, 0.23415300f, -0.01049270f, 0.09662708f, 0.03811160f, -0.08059987f, -0.02698323f, -0.20018819f, -0.11084751f, -0.05660561f, -0.33079261f, -0.32495248f, 0.60232073f, -0.08773353f, 0.00419117f, -0.24362707f, -0.22485146f, -0.12498856f, 0.43814918f, 0.00104739f, 0.07895995f, 0.03243335f, -0.10144500f, 0.00826249f, -0.33925095f, 0.00912658f, 0.17810701f, -0.13837306f, 0.03212941f, 0.02567955f, 0.12520350f, -0.22274767f, 0.01678053f, -0.19772823f, 0.30435544f, -0.23372307f, -0.16590393f, 0.05659128f, -0.08836537f, -0.12683886f, -0.27234402f, -0.06808500f, -0.42827856f, -0.04288188f, 0.08626842f, 0.00695351f, 0.06237517f, 0.19059001f, 0.00083445f, -0.04933354f, -0.02217066f, 0.06459045f, -0.03850601f, 0.17416605f, -0.05547085f, -0.00339914f, -0.59801042f, -0.17174029f, 0.30437949f, 0.03332727f, 0.03358873f, -0.07101629f, -0.21177474f, -0.04288051f, 0.09000773f, -0.02725401f, 0.12479217f, 0.09259389f, 0.00879710f, -0.10543737f, -0.03358213f, -0.02537521f, -0.11719531f, 0.06845740f, -0.46700361f, -0.23208930f, -0.11450489f, -0.20458143f, 0.27426049f, -0.15764847f, -0.03330660f, -0.13368660f, 0.35266376f, -0.02205829f, 0.15569073f, 0.11322891f, 0.24769843f, -0.08049280f, -0.03115070f, 0.17245442f, 0.25339872f, 0.10677098f, 0.35912728f, -0.04489923f, -0.27584979f, 0.34829241f, 0.02032169f, 0.12453929f, 0.02109448f, -0.18911468f, -0.24912411f, -0.03180159f, -0.05797289f, 0.06247048f, 0.34924975f, 0.18051142f, 0.03764329f, -0.02343148f, 0.08361319f, 0.01006322f, 0.07227279f, 0.02004063f, -0.27919096f, -0.10661528f, -0.09675454f, 0.38265419f, -0.07147908f, -0.08354875f, -0.02342410f, 0.20959236f, 0.12797363f, 0.08240838f, -0.15342879f, -0.08471131f, -0.10298161f, -0.24854840f, 0.08065545f, 0.12474918f, -0.14551945f, -0.23300832f, -0.12931700f, 0.01989138f, -0.07151235f, 0.06210013f, -0.00058796f, 0.14957908f, -0.03213440f, 0.54884279f, 0.04111626f, 0.01997022f, -0.12334441f, 0.11581418f, 0.14004658f, -0.01509115f, -0.05892519f, 0.12223993f, -0.04479034f, 0.10563704f, 0.08800688f, 0.01275053f, 0.01118324f, -0.21790649f, 0.15098678f, 0.13483083f, -0.02087602f, -0.19318935f, -0.08534289f, -0.30625918f, 0.13457011f, -0.26102692f, 0.48798510f, -0.23659301f, 0.19563544f, -0.03702052f, 0.05888527f, -0.28311116f, -0.09240964f, -0.12948029f, -0.18385786f, 0.07449529f, -0.19762455f, -0.05949415f, 0.09051894f, -0.09236467f, -0.21368210f, -0.05903433f, 0.27928525f, -0.03298522f, -0.15731536f, 0.38021821f, -0.02927902f, -0.27780148f, -0.21538585f, 0.49399182f, 0.04008164f, -0.23825912f, 0.18598385f, 0.18077782f, -0.00340909f, 0.26001465f, -0.06091793f, -0.08878170f, -0.06034314f, 0.05749464f, -0.03274465f, -0.23145694f, -0.15388058f, -0.04309830f, 0.23914377f, 0.00750715f, 0.19730052f, -0.12284865f, -0.10548416f, 0.10520811f, 0.47369420f, -0.08151622f, 0.02592658f, 0.21988337f, 0.48870862f, -0.09585377f, -0.15080056f, -0.10289310f, -0.09848974f, -0.32666030f, -0.02474864f, -0.02453923f, -0.32275313f, -0.12967987f, -0.26775098f, 0.09958918f, -0.17797451f, 0.06266771f, -0.11793427f, -0.13796963f, 0.00847372f, -0.10260317f, -0.12480484f, -0.16037403f, -0.16779128f, -0.03545712f, -0.23935516f, 0.01746304f, 0.33203775f, -0.00392243f, -0.26106507f, 0.32455516f, -0.10726924f, 0.05322693f, -0.04823470f, -0.08239093f, -0.14824298f, -0.04406232f, -0.12998018f, 0.05472283f, 0.17110288f, 0.16746387f, 0.28994089f, 0.05615766f, -0.24691328f, -0.12773499f, -0.19218157f, -0.13550098f, -0.15367253f, 0.00120321f, 0.03504976f, -0.25138247f, -0.20654368f, -0.45554897f, 0.13743369f, -0.11873336f, -0.05391390f, -0.24578819f, -0.15920217f, 0.23851903f, 0.39096716f, -0.05580482f, -0.27860722f, 0.27974176f, 0.11311365f, 0.00098370f, -0.04270318f, 0.36740640f, 0.01759771f, -0.12227730f, -0.16750815f, 0.00354056f, 0.19164415f, -0.18122076f, -0.03103829f, 0.13882445f, -0.00559043f, -0.32839370f, 0.16691274f, 0.03702107f, -0.06823501f, 0.13984497f, 0.09891022f, 0.13641881f, -0.10004987f, 0.42535463f, -0.16083483f, 0.01159748f, 0.07605176f, 0.16508114f, 0.30932090f, -0.09769054f, -0.57690334f, -0.24990770f, 0.02039947f, -0.03544416f, -0.21266413f, 0.12804222f, 0.02892321f, 0.07265303f, -0.19818384f, 0.02858783f, -0.07032195f, -0.00185000f, 0.21205339f, -0.24225026f, -0.04849177f, -0.25307918f, -0.27839485f, -0.06513145f, 0.05909561f, -0.10512471f, 0.02509857f, 0.11572942f, -0.01369643f, -0.09743343f, -0.01002233f, 0.05453951f, 0.15132402f, -0.05239183f, 0.06054773f, -0.06762596f, -0.00026838f, -0.09414408f, -0.02345932f, 0.03166405f, -0.06510790f, -0.07055361f, 0.02146596f, 0.12747535f, 0.00607753f, -0.09206346f, -0.21023436f, 0.20358139f, -0.07095433f, -0.02451173f, -0.01050500f, -0.19170251f, -0.15840983f, -0.27665111f, 0.00039164f, -0.04341658f, 0.09041759f, -0.05543509f, -0.15452144f, -0.30924305f, -0.00505385f, -0.01587204f, 0.03750579f, -0.28803560f, 0.38922393f, -0.35493901f, -0.31442186f, -0.00396193f, 0.08969739f, 0.25377435f, 0.27112281f, -0.15423206f, 0.03007912f, 0.33775139f, 0.33568120f, 0.07633670f, -0.10323869f, 0.04117497f, -0.28230885f, -0.19883552f, -0.14997466f, 0.25186691f, 0.11901101f, -0.08579493f, 0.01648085f, -0.01057599f, 0.08325830f, -0.19987087f, -0.28685558f, -0.08489368f, -0.08899031f, -0.18762706f, 0.04887620f, -0.15743090f, 0.13147444f, 0.16199772f, 0.11190538f, 0.07741867f, 0.12506563f, -0.05887705f, 0.05276062f, -0.11957097f, -0.03871977f, -0.03808327f, -0.41557393f, -0.37053323f, 0.22187062f, 0.23145445f, -0.12786999f, -0.30631271f, -0.02491109f, -0.07735184f, 0.35521495f, 0.34479132f, 0.03021262f, 0.03668004f, -0.22981189f, 0.07990368f, -0.34713876f, 0.04812345f, -0.07588273f, -0.20909792f, 0.13337652f, -0.07323001f, -0.16364226f, -0.05160067f, -0.13985579f, 0.09936446f, 0.12874724f, -0.10444403f, -0.11515126f, 0.02800259f, -0.02957462f, -0.08267534f, 0.09210147f, 0.00454307f, 0.13303710f, -0.04450431f, 0.10447549f, 0.18089995f, -0.08193523f, -0.14154658f, -0.15091871f, -0.06626737f, 0.09648199f, -0.10917414f, -0.05388386f, 0.00903557f, -0.15252250f, 0.22271506f, -0.00589927f, 0.21103369f, -0.14108999f, 0.02297383f, -0.17146021f, -0.25724322f, -0.17053337f, 0.27506304f, 0.12552795f, -0.28858987f, -0.20648757f, 0.09037508f, -0.08927516f, 0.14176458f, -0.18976000f, 0.00870655f, 0.03830205f, 0.03360031f, -0.04958457f, -0.05123663f, 0.07770549f, 0.06532672f, -0.07146390f, -0.06021301f, 0.00955965f, -0.29296759f, -0.06040987f, -0.16022289f, -0.17752713f, -0.09578347f, -0.02402694f, -0.14520238f, -0.22590885f, 0.01716330f, -0.55252671f, 0.03480064f, -0.29352874f, -0.01452877f, -0.08778927f, -0.14046828f, 0.17072293f, 0.22980784f, -0.05182607f, 0.00410037f, 0.18970641f, 0.07272750f, -0.10512294f, 0.03754256f, 0.07240342f, 0.04145168f, -0.29297048f, -0.46947360f, 0.16409382f, 0.26635900f, -0.11193162f, -0.18242982f, -0.07333759f, -0.18703467f, 0.16848089f, 0.24758115f, -0.07262889f, 0.11859869f, 0.16443351f, -0.01407321f, -0.29134950f, 0.14036089f, 0.14102316f, -0.26527449f, -0.15931320f, 0.12210683f, 0.04067426f, 0.00519438f, -0.02272919f, 0.17719786f, -0.05848945f, -0.09798937f, -0.20080063f, 0.06762187f, 0.23304442f, -0.03937941f, -0.00373785f, -0.02995194f, -0.09342737f, -0.19708972f, 0.16028374f, 0.18155365f, 0.05975663f, 0.12177049f, -0.09740010f, 0.05645453f, 0.11405221f, -0.14045617f, -0.07591355f, -0.13079143f, -0.02977613f, -0.08658847f, -0.06484206f, -0.10345060f, 0.00652949f, -0.01135862f, -0.07732946f, -0.06738868f, 0.06189361f, -0.10382698f, -0.08495564f, -0.04671656f, 0.13316341f, -0.04783270f, -0.23298849f, 0.05773405f, -0.32324967f, 0.09052005f, -0.29994547f, 0.00684669f, -0.20780025f, 0.00370011f, 0.36171454f, 0.09547190f, 0.12742785f, 0.29061288f, 0.12812443f, -0.13172255f, -0.15150896f, -0.09428671f, -0.15546091f, -0.08495366f, -0.04916277f, -0.08229079f, -0.02870684f, -0.23941661f, 0.13708983f, -0.01868721f, 0.27764258f, -0.02617655f, 0.04668757f, -0.13656592f, -0.10819349f, -0.06697398f, -0.27973929f, -0.00722777f, 0.08698463f, 0.04554078f, -0.21983700f, -0.12836832f, -0.06787335f, -0.06256852f, 0.07792605f, 0.08207833f, 0.14687550f, 0.09341250f, 0.05394482f, -0.01957642f, 0.19181667f, -0.16012974f, 0.13700938f, -0.24411628f, -0.23377542f, 0.14610530f, 0.43292913f, -0.27045342f, -0.06984165f, 0.13726288f, -0.09886689f, 0.07562344f, 0.02232139f, 0.15700400f, -0.05030018f, -0.08483241f, 0.14064260f, 0.01843555f, 0.13032034f, -0.06727664f, -0.15006533f, -0.30936700f, -0.19634104f, 0.04352000f, -0.11304446f, -0.03080560f, -0.09807972f, -0.03340483f, -0.41306815f, -0.06384750f, -0.15701501f, -0.12512271f, -0.24573427f, -0.02538151f, -0.11386204f, 0.07344016f, -0.04108823f, -0.09744199f, 0.20692770f, -0.04907871f, 0.00321909f, 0.08083838f, -0.13791299f, -0.20864774f, -0.24777321f, 0.04984885f, 0.10769979f, -0.00581217f, 0.02799460f, -0.31905657f, -0.07801543f, 0.01241627f, 0.19801888f, -0.07685094f, -0.22546743f, 0.05426049f, 0.28961006f, 0.28305247f, -0.33185938f, 0.11169532f, -0.08930660f, 0.14649770f, -0.05618585f, -0.28733370f, -0.03702233f, -0.08404076f, -0.38472787f, 0.14040427f, -0.10192692f, -0.04721704f, 0.53902221f, 0.01341230f, -0.11358413f, 0.08748591f, 0.04507383f, -0.12032414f, 0.15126514f, -0.01421986f, -0.01306158f, 0.07718647f, 0.24995971f, 0.24147323f, -0.09048711f, -0.02832923f, -0.00781765f, 0.01708712f, 0.19883370f, -0.02877255f, 0.16992283f, -0.06520558f, -0.19411677f, -0.00329223f, 0.47016996f, 0.04227776f, 0.14097601f, -0.18027189f, 0.18634069f, -0.00260191f, -0.25648284f, 0.02762821f, -0.29572102f, -0.24983649f, 0.12330462f, -0.14919241f, 0.11551467f, -0.03060672f, -0.26211917f, -0.05057432f, 0.42601037f, -0.00590329f, -0.03213568f, 0.19736151f, -0.26514456f, -0.01670042f, 0.08265858f, 0.10128712f, -0.08906907f, -0.62854940f, 0.03669292f, 0.11077689f, -0.20839521f, -0.01024194f, 0.03047080f, 0.02921631f, 0.19109856f, 0.25019383f, 0.00554759f, 0.18905589f, 0.00386976f, 0.12982738f, -0.17543063f, 0.11039022f, 0.15739915f, -0.34175763f, 0.06537009f, -0.07936884f, 0.04913278f, 0.07303613f, 0.09096492f, 0.08551016f, -0.35492861f, -0.33060080f, 0.09855987f, -0.12229638f, -0.16511148f, 0.07182942f, -0.12029400f, -0.26966617f, 0.13123316f, -0.03949934f, -0.08059474f, 0.01928460f, -0.01371328f, 0.26418140f, -0.56432170f, -0.46442705f, -0.29649675f, 0.18584332f, -0.26172817f, 0.13224100f, 0.19438963f, -0.07913671f, 0.09863625f, 0.08379580f, -0.31971240f, 0.08770297f, -0.03578256f, 0.05808970f, -0.18993655f, -0.25871581f, 0.28854409f, 0.13947932f, -0.04309820f, -0.00354549f, 0.02645825f, 0.11078536f, 0.02985442f, 0.27611789f, 0.51650268f, -0.15903819f, -0.15720286f, 0.27184978f, -0.23013511f, -0.13986033f, -0.30650848f, -0.22903468f, 0.06900167f, -0.04138645f, 0.47201818f, 0.12294429f, -0.09083229f, -0.28527534f, -0.65038359f, -0.23113188f, 0.20443560f, -0.04534900f, -0.02528410f, -0.08656287f, 0.02810838f, -0.17951375f, 0.04447481f, -0.05285329f, -0.09475243f, -0.39773637f, -0.19896232f, 0.20797443f, -0.31588435f, -0.33312041f, -0.18652692f, 0.15618019f, -0.02684235f, 0.13264182f, 0.05479861f, -0.16855866f, 0.05260459f, 0.07312571f, -0.09953053f, -0.01475167f, 0.09074625f, -0.10574783f, 0.21107705f, -0.02786875f, 0.11672214f, -0.01727158f, -0.27124208f, -0.10753460f, 0.08675188f, 0.03950610f, 0.07671246f, -0.16852762f, -0.04948468f, -0.12428173f, 0.02849512f, 0.00844449f, -0.17116095f, 0.02478356f, 0.26619214f, -0.06709392f, -0.29716757f, -0.12034975f, 0.10083481f, -0.05196253f, 0.05605222f, 0.13390099f, 0.01565597f, -0.31584120f, 0.11160198f, -0.00835627f, -0.14710128f, 0.09061830f, 0.13962263f, -0.24267924f, -0.35469073f, 0.30032721f, -0.06768610f, -0.09619772f, -0.08214942f, 0.07392440f, 0.18368144f, 0.10988787f, -0.24742755f, 0.20708358f, -0.16920392f, 0.10592378f, -0.13257207f, 0.14466128f, 0.14527586f, 0.04813414f, 0.14979811f, 0.07069989f, -0.06606129f, -0.12547295f, -0.13061442f, 0.12874341f, 0.00517929f, -0.12386507f, -0.04252492f, -0.17910986f, -0.24057557f, -0.20922904f, -0.26340470f, -0.05643887f, -0.15311319f, -0.21468762f, -0.06374723f, 0.13425149f, -0.12063190f, -0.03953121f, -0.09537131f, 0.30124852f, 0.23885497f, -0.17911324f, 0.09453040f, 0.17555872f, -0.19953148f, -0.02802965f, -0.01884811f, -0.10260078f, 0.07191616f, -0.05407640f, 0.02677132f, -0.10680082f, -0.09647338f, -0.04223681f, -0.14517407f, 0.15721287f, -0.00268452f, 0.22922720f, -0.00120618f, 0.13289827f, -0.01327719f, -0.17028309f, -0.24054594f, -0.36687037f, 0.07234182f, -0.24575284f, 0.26530996f, -0.06831796f, -0.04166207f, -0.08950391f, -0.04641582f, -0.04818850f, -0.00820495f, -0.15535644f, -0.09635171f, 0.03289377f, -0.19669877f, -0.00739470f, -0.14336710f, 0.09177415f, -0.24423595f, 0.08055408f, 0.12679224f, 0.10533602f, -0.29705593f, -0.10762762f, 0.07788789f, -0.06670664f, -0.07356493f, 0.06322904f, 0.09612288f, -0.08868178f, -0.14467569f, -0.03902667f, 0.08710097f, 0.32191747f, -0.49265513f, -0.01877212f, -0.10670595f, -0.00980434f, -0.08807764f, -0.03514910f, -0.19875866f, -0.15506782f, -0.32414034f, 0.17452993f, -0.13927826f, 0.05561830f, 0.32635164f, -0.08859605f, -0.57241637f, 0.07645785f, 0.12132798f, 0.12081306f, 0.01535352f, -0.07677285f, -0.09972072f, 0.06561945f, -0.12715618f, 0.14367376f, -0.15093891f, 0.05637109f, 0.08346777f, -0.25395071f, 0.08443417f, 0.06897984f, 0.06975523f, -0.10778119f, 0.05068275f, -0.00984522f, -0.00697149f, -0.02014241f, -0.11096872f, 0.15962131f, -0.04091987f, 0.01036548f, -0.00120062f, -0.01794082f, -0.08574662f, -0.12516575f, -0.15243812f, 0.21669827f, -0.16316219f, 0.06446579f, -0.03868748f, -0.05517162f, 0.01073481f, -0.05444501f, -0.02239202f, -0.28009391f, -0.03010143f, -0.37128058f, 0.13263529f, 0.13061789f, -0.10419179f, 0.08132456f, -0.04441559f, 0.21324268f, -0.01308242f, 0.10693892f, -0.31067505f, 0.15444529f, -0.25373903f, 0.19028823f, 0.02302964f, -0.11024278f, 0.00923781f, -0.13013343f, -0.32349801f, 0.05872762f, 0.12809324f, -0.10317465f, 0.16002968f, -0.05248499f, -0.08778644f, 0.19833307f, -0.07308588f, 0.11073524f, 0.00381509f, -0.15087117f, 0.11429547f, -0.00638325f, 0.18000555f, -0.12713984f, 0.05061507f, -0.25330964f, 0.09381605f, -0.04347360f, -0.05133295f, 0.02341074f, -0.22819361f, 0.04137858f, -0.05594638f, -0.17856432f, 0.24079962f, 0.35709924f, -0.11550020f, -0.00785370f, -0.14509374f, 0.27416682f, -0.19552310f, -0.10121201f, -0.18744482f, 0.06235690f, 0.07338414f, 0.15442933f, 0.02097802f, 0.19059213f, -0.36969167f, -0.14647067f, 0.02283045f, 0.03756196f, 0.12157442f, 0.17740798f, -0.03846386f, 0.01692875f, -0.24652475f, 0.03453970f, 0.15911545f, 0.07535791f, -0.12464067f, -0.07031333f, 0.01219090f, -0.15170664f, -0.15663424f, -0.25398591f, 0.37976477f, -0.19703925f, -0.02196871f, -0.09409247f, 0.07955135f, -0.02201869f, 0.04061529f, 0.13118678f, 0.11794687f, -0.03887456f, 0.37146059f, -0.49743456f, 0.10795405f, 0.06657118f, -0.09966137f, 0.17010912f, 0.03960194f, 0.10742216f, -0.04904184f, 0.11641297f, 0.10373540f, -0.07642538f, -0.04648893f, 0.09903722f, -0.09621696f, -0.04315295f, 0.08450637f, -0.16329040f, 0.15448408f, -0.02300386f, -0.70679492f, 0.00934165f, -0.36194485f, 0.10837443f, -0.07113358f, -0.33589703f, 0.09199145f, -0.03913298f, 0.09347675f, 0.17446324f, -0.13691989f, 0.01964351f, 0.20884147f, 0.06227910f, 0.02027018f, 0.06687813f, -0.00939567f, 0.10237624f, 0.09962036f, -0.29362872f, 0.10475122f, -0.04750885f, -0.06773841f, 0.06366808f, 0.08575848f, 0.14918104f, -0.02488124f, 0.19977014f, 0.08888692f, -0.20438844f, -0.20142740f, -0.01416879f, -0.13651152f, 0.10862826f, 0.05092259f, 0.16221386f, -0.12036526f, -0.13144733f, 0.13845475f, -0.36039808f, 0.47993505f, 0.00333747f, -0.07535541f, 0.05477106f, -0.18608242f, 0.19789888f, -0.08108679f, 0.19768956f, -0.42700663f, -0.18990804f, -0.16594060f, -0.13748158f, 0.01440885f, -0.09304433f, -0.24366453f, -0.00782610f, -0.10085323f, -0.08044817f, 0.08537458f, 0.02740594f, 0.15973020f, -0.00969025f, -0.17143911f, -0.01160877f, -0.19639766f, -0.06437173f, 0.47362429f, -0.03559626f, 0.29079878f, 0.36924890f, 0.18643522f, 0.22185798f, -0.00138623f, 0.13024409f, 0.04472756f, -0.09644042f, -0.14203788f, 0.11410254f, -0.07674725f, 0.04602996f, -0.23520644f, -0.13537885f, -0.15434705f, -0.03436149f, 0.01849283f, 0.11492036f, -0.26898611f, -0.08505504f, -0.14207442f, -0.10078953f, -0.17611866f, 0.73706227f, -0.27939606f, 0.12130714f, -0.04536766f, -0.01437339f, 0.12412256f, -0.07849328f, 0.17672451f, 0.05554160f, -0.17547312f, 0.31266218f, -0.02330079f, 0.26770815f, -0.11259203f, 0.00932233f, 0.07539985f, 0.09261753f, 0.24751820f, 0.00331824f, -0.00246043f, -0.27329686f, -0.06433393f, -0.18284084f, -0.05938883f, -0.13549039f, -0.24945058f, 0.08298096f, 0.03962650f, 0.13394119f, 0.13279769f, -0.05753544f, 0.10691301f, 0.17555647f, -0.21729338f, -0.02714945f, -0.15788186f, -0.12747504f, -0.50677311f, -0.23531748f, -0.43452922f, 0.19145677f, -0.07965332f, -0.25701281f, 0.13051040f, -0.11223380f, 0.08871614f, 0.03687315f, 0.00893919f, -0.43532646f, 0.13510664f, -0.07532036f, 0.20313422f, 0.07336579f, -0.16568768f, -0.02429187f, 0.33300966f, -0.38244185f, -0.24677433f, -0.08783887f, 0.10940919f, -0.05101690f, 0.06327692f, 0.05256889f, -0.07641155f, 0.16944747f, -0.39501748f, -0.07455950f, -0.09540503f, -0.04929332f, -0.21398787f, -0.16967355f, 0.22433567f, -0.19363113f, 0.05025136f, -0.18394327f, 0.05963514f, -0.15479863f, -0.21349487f, 0.13102606f, -0.06538705f, -0.00968692f, -0.00837581f, -0.00034772f, -0.24911198f, 0.01704610f, 0.40576589f, -0.13133402f, 0.07081423f, 0.13449457f, -0.16305162f, 0.21534811f, -0.09231938f, -0.03594681f, 0.04289809f, -0.05205941f, 0.12723154f, 0.17366642f, -0.01712421f, 0.24617018f, 0.07317987f, 0.01467555f, 0.23593323f, -0.01213241f, 0.46028745f, 0.33406773f, 0.05777106f, 0.21963380f, -0.06813785f, -0.12054315f, -0.00906568f, 0.04481754f, 0.09610980f, -0.21364926f, -0.09892209f, -0.17126073f, -0.02974763f, -0.08815404f, -0.32080436f, -0.23025808f, -0.01923989f, -0.18894550f, 0.06397507f, -0.10747931f, -0.37303847f, 0.01569044f, -0.34693575f, -0.08706114f, -0.17719127f, 0.02740544f, -0.01295324f, 0.06119523f, -0.12306509f, 0.12022063f, 0.39156190f, 0.35915232f, -0.23283598f, 0.28731736f, -0.15893042f, 0.24770652f, -0.28283200f, -0.22893497f, -0.03532738f, -0.15315643f, 0.16039112f, -0.06802764f, -0.05183676f, 0.14923546f, 0.19096203f, -0.00818383f, -0.22959806f, -0.46684575f, 0.07014272f, 0.06386999f, -0.03563084f, -0.02867811f, -0.13365233f, -0.30098003f, -0.08489880f, -0.19083101f, 0.36453956f, 0.20878395f, 0.23532085f, -0.48016200f, -0.16100931f, 0.16955951f, -0.21338707f, 0.23638037f, -0.22877051f, -0.04889376f, -0.15669514f, -0.03481857f, 0.27395892f, -0.08886453f, -0.13265361f, 0.04575093f, -0.26807812f, -0.57569563f, -0.04955611f, 0.10972461f, -0.25871220f, -0.07842486f, 0.04606191f, 0.07214378f, -0.16604206f, 0.06648690f, 0.06895697f, -0.37741911f, 0.05059386f, -0.20374794f, 0.03336538f, 0.06113600f, -0.07915035f, -0.12078782f, 0.02145421f, -0.04407926f, -0.15081720f, -0.09593201f, -0.07305043f, 0.23276305f, -0.40611216f, -0.25323078f, 0.04221461f, 0.00694473f, -0.15588441f, 0.24517401f, 0.04923459f, 0.03456940f, 0.08822227f, -0.06271951f, -0.10316531f, -0.04868030f, 0.27633309f, 0.11654402f, 0.13472460f, -0.05168765f, 0.19236179f, 0.04793122f, -0.03276655f, -0.14198157f, -0.16210926f, 0.08469535f, 0.34409842f, 0.12807721f, 0.03340969f, 0.02959167f, 0.06110532f, -0.01197399f, -0.06199782f, -0.14311290f, -0.11268391f, -0.23892856f, -0.10826840f, -0.04274611f, 0.00297290f, -0.20845459f, 0.18714617f, 0.09942763f, -0.16394101f, 0.01764518f, -0.20423329f, -0.11496676f, -0.22878510f, -0.17813916f, -0.07075800f, -0.02443794f, -0.13863625f, 0.22169407f, 0.09951550f, -0.07951665f, -0.05598605f, -0.16222072f, 0.09184533f, 0.09506134f, 0.15075797f, -0.01328348f, -0.18359594f, -0.00588140f, 0.05564874f, 0.01863862f, -0.49037939f, -0.12728027f, -0.27244002f, -0.41770163f, -0.18585908f, 0.03918668f, -0.24469174f, -0.10350131f, 0.03695730f, 0.04120201f, 0.16090000f, 0.06516079f, -0.14399087f, 0.17945404f, -0.17398842f, 0.15586214f, -0.07811419f, 0.04792232f, 0.04985866f, -0.06386354f, 0.36846036f, 0.28559342f, -0.01154076f, -0.11155015f, -0.14899680f, -0.23173319f, -0.18943928f, -0.07565948f, 0.17791155f, 0.08740482f, -0.23657103f, 0.00427300f, -0.16393004f, 0.27669135f, -0.03678733f, -0.11263423f, 0.22345612f, -0.13213146f, 0.22659349f, -0.02537657f, -0.07661583f, -0.31184742f, 0.02870969f, -0.16135094f, 0.10973877f, -0.23733024f, 0.12264038f, 0.21859546f, 0.00943257f, 0.07183370f, 0.09489217f, -0.03098675f, 0.00199162f, -0.11523902f, 0.07765453f, -0.11897391f, 0.10496648f, -0.22250162f, 0.19577684f, 0.01346368f, -0.05731346f, -0.01923433f, -0.13520576f, -0.03134881f, 0.22057858f, -0.03562069f, 0.03131368f, -0.01310354f, -0.06960455f, -0.15623839f, -0.03757627f, 0.03272739f, 0.00877772f, 0.12140360f, -0.08609974f, 0.01969701f, -0.09135586f, -0.01550361f, -0.14273800f, -0.03124992f, -0.01090095f, 0.07211892f, 0.25487813f, 0.00261499f, 0.09501998f, -0.17751276f, -0.20895690f, -0.05957683f, -0.02310496f, -0.00257340f, 0.11662473f, 0.02203561f, 0.07179816f, -0.09779328f, -0.26352766f, -0.01655426f, -0.20775034f, 0.01544781f, -0.14463714f, -0.42480415f, -0.17646465f, 0.01980624f, -0.06367402f, 0.19275546f, 0.14974558f, 0.02387900f, 0.25345156f, -0.01500686f, -0.05986580f, -0.22401652f, 0.23483506f, 0.15792126f, -0.33695760f, -0.11188903f, 0.09182648f, -0.09169011f, 0.10787292f, -0.08272064f, 0.15857784f, -0.32176807f, 0.05223698f, -0.09866944f, -0.10609342f, 0.26432633f, -0.04399575f, 0.02009568f, 0.15053377f, -0.13188089f, 0.23616052f, -0.01117773f, -0.52947348f, 0.05541156f, -0.20125653f, -0.31851837f, -0.02983035f, -0.15727362f, -0.12372106f, -0.26188192f, 0.01548714f, 0.21228895f, 0.03862689f, -0.07975805f, -0.05748307f, 0.03970568f, -0.19089533f, 0.08411515f, 0.24433510f, 0.02783074f, 0.04241100f, 0.16615072f, -0.12143944f, -0.45343354f, -0.07341373f, -0.14918558f, -0.00580176f, 0.01102211f, 0.02768278f, -0.22808145f, 0.21117292f, -0.12354495f, -0.29631370f, 0.08468480f, -0.45042422f, -0.44584608f, -0.32825255f, -0.06770274f, -0.09940456f, 0.02318823f, -0.14249873f, 0.12325658f, 0.08747853f, -0.07345236f, -0.19368297f, 0.08112150f, 0.16492374f, -0.09751637f, -0.44830963f, -0.02252420f, 0.24204630f, 0.02471951f, 0.21689692f, -0.08233652f, -0.12294050f, 0.15928400f, -0.02619133f, 0.05259999f, 0.08775102f, -0.06316810f, -0.00575908f, -0.38597092f, 0.35740942f, -0.01231679f, 0.11226180f, -0.15547240f, 0.08135486f, -0.05930536f, 0.00665050f, -0.02289600f, 0.08674166f, -0.30353355f, -0.04316289f, 0.28884038f, -0.42448959f, 0.02558753f, -0.11959091f, -0.04017223f, -0.31402904f, -0.07568464f, -0.09144400f, -0.07547875f, 0.04477879f, -0.01604498f, -0.22581026f, 0.01067394f, 0.06010557f, -0.09861757f, 0.13795245f, 0.01785960f, 0.12484916f, 0.11796163f, -0.02663278f, 0.32421610f, -0.03573681f, 0.27630034f, 0.03275209f, -0.16463818f, 0.02059272f, -0.07686108f, 0.30048194f, -0.17917036f, -0.10963774f, 0.22443758f, -0.13004851f, 0.20273343f, 0.09183545f, 0.08324552f, -0.15119188f, -0.14372319f, -0.22582130f, 0.02461825f, -0.18489800f, -0.00783885f, -0.09318974f, -0.01784974f, 0.07826417f, 0.29790261f, 0.13757834f, 0.14729598f, -0.19940247f, 0.08977804f, -0.33774084f, 0.06279148f, 0.07877594f, -0.42285720f, 0.05693915f, -0.22600187f, -0.24663417f, 0.13997640f, 0.13067170f, 0.21524715f, 0.07500802f, 0.07686550f, -0.22557011f, -0.13540493f, -0.44765386f, 0.36787126f, -0.17074081f, -0.14302898f, 0.06504705f, 0.20500733f, -0.09381758f, 0.76455355f, -0.00936964f, -0.17258537f, -0.13877281f, -0.17267385f, 0.03960743f, -0.31886581f, 0.06656026f, -0.10390551f, -0.13849099f, -0.08356376f, -0.04518794f, -0.03890841f, -0.04471817f, -0.02872388f, -0.12574369f, -0.03889525f, 0.27260062f, 0.29711878f, -0.42094234f, -0.03608722f, -0.49518907f, 0.10559529f, -0.16457646f, -0.63948590f, 0.06450549f, 0.07719018f, 0.09338647f, 0.12199026f, -0.05517539f, -0.01520710f, -0.16870230f, 0.00426617f, -0.15189138f, -0.08901918f, 0.15401035f, -0.02887431f, -0.20338649f, -0.11656972f, 0.15791577f, -0.03109942f, -0.16045403f, -0.08287600f, -0.05920968f, 0.08588631f, -0.30756098f, 0.40993789f, -0.17677590f, -0.04554072f, -0.10864513f, 0.10850393f, 0.24894379f, 0.30313244f, -0.07483189f, 0.02631790f, -0.09230284f, 0.24212541f, -0.28728905f, 0.02048077f, 0.12375120f, 0.17578417f, 0.31908899f, 0.09154630f, -0.20349751f, 0.01964461f, 0.22040866f, -0.12636296f, -0.01922660f, -0.10406949f, -0.34096479f, -0.29504931f, -0.12907690f, 0.17875940f, -0.29246390f, 0.02362689f, 0.09591494f, -0.09132657f, 0.16120352f, -0.09246794f, -0.03784867f, -0.09059265f, 0.15699735f, -0.16261463f, 0.23566365f, 0.20167655f, -0.23569585f, -0.16153316f, 0.05994651f, -0.06490345f, -0.39661574f, 0.51631421f, -0.05263519f, -0.04793996f, -0.16966687f, -0.23842800f, -0.07034912f, 0.17933430f, 0.05096215f, -0.00170871f, 0.04800520f, 0.16720803f, 0.02020047f, -0.08151259f, -0.15312272f, 0.07188213f, -0.12435953f, -0.22388829f, 0.00122474f, -0.20168330f, -0.13048512f, -0.01730312f, -0.33535132f, 0.14784369f, -0.20381756f, 0.06266639f, 0.30766672f, 0.21038052f, 0.27407268f, 0.02144283f, -0.16939662f, 0.02898320f, -0.52793282f, 0.04307326f, -0.08645227f, 0.10012379f, -0.17531709f, -0.04457832f, 0.19883920f, -0.06663593f, 0.01841776f, 0.19983648f, -0.31405172f, -0.36478984f, -0.10634114f, 0.04056838f, -0.03110769f, -0.06654599f, -0.04569512f, -0.20370065f, 0.00677519f, 0.27286640f, -0.10437536f, 0.25464919f, 0.23206189f, -0.13609543f, 0.04661331f, -0.03182145f, -0.11537956f, -0.04774953f, 0.11131536f, 0.23269741f, 0.18610568f, 0.24741963f, -0.03697020f, 0.16652049f, -0.19216464f, 0.01402395f, 0.09264757f, 0.09578232f, 0.27403137f, -0.03994075f, -0.04759616f, -0.05219398f, -0.01909664f, 0.04146196f, -0.08426073f, -0.04439902f, -0.01402230f, 0.04629029f, 0.05039687f, -0.14495747f, 0.02383140f, -0.21105613f, 0.07472524f, 0.12405653f, 0.11865798f, 0.13840243f, -0.05029335f, -0.04967117f, -0.00090834f, 0.18433295f, 0.02219979f, -0.01456429f, -0.05501997f, -0.30118150f, -0.00941956f, -0.11563569f, 0.12017989f, -0.06378190f, 0.12589414f, 0.04941244f, -0.07886203f, -0.24845907f, 0.04344826f, 0.21558239f, -0.26566318f, -0.09345167f, -0.10629345f, 0.10906272f, 0.15028852f, 0.02802584f, 0.13468416f, 0.08138855f, -0.23159513f, 0.09901804f, 0.10628454f, -0.20407550f, -0.16763787f, 0.08880281f, 0.02121062f, 0.04576994f, 0.05862159f, -0.21275079f, -0.41585654f, 0.53204209f, -0.25205576f, 0.13667345f, 0.20747730f, -0.16941892f, -0.01888993f, 0.11801765f, 0.16850746f, -0.03313767f, -0.17081280f, -0.15099145f, 0.05520808f, -0.02511202f, -0.42958912f, -0.08217780f, -0.07446165f, -0.03130107f, 0.15131211f, -0.11685759f, 0.00399163f, -0.33335674f, 0.01066816f, -0.20942903f, -0.19305702f, -0.10969948f, -0.28460023f, -0.13114710f, -0.21094918f, 0.01992925f, 0.17163445f, 0.04432588f, 0.41607505f, 0.14689489f, -0.10383610f, 0.00952885f, -0.45317444f, -0.13799968f, 0.08955465f, -0.01229192f, -0.13350093f, 0.17830478f, 0.20017287f, -0.03426228f, 0.04446971f, -0.09612128f, 0.03976593f, -0.34617436f, 0.02422839f, -0.03296925f, -0.33269736f, 0.04062500f, -0.07768726f, -0.13000795f, -0.11382019f, 0.05906173f, -0.07753769f, -0.14169608f, 0.03154400f, -0.29517254f, 0.02547778f, 0.21403170f, -0.13380235f, 0.09179825f, 0.00986079f, 0.11947679f, 0.17521359f, 0.19368428f, -0.26821685f, 0.08959509f, -0.17048892f, -0.02418153f, 0.02772231f, -0.01522705f, 0.25130939f, 0.13050942f, 0.05659926f, -0.00579312f, 0.04369993f, -0.19924201f, -0.23479655f, -0.20780940f, -0.06179510f, 0.06784220f, 0.02700132f, 0.07580507f, 0.03422329f, 0.08581254f, 0.08249750f, -0.23721400f, 0.14299713f, 0.04830735f, 0.32554966f, -0.34137291f, -0.01277478f, -0.03188334f, -0.08645268f, 0.11383171f, 0.17429677f, 0.02532133f, 0.05493242f, -0.05153612f, -0.16858871f, 0.00378619f, 0.17124939f, 0.10861408f, 0.22687903f, -0.16330910f, -0.08479450f, 0.20569822f, 0.09860600f, -0.26094800f, 0.23099905f, -0.15142909f, 0.17029184f, -0.07231455f, -0.04917941f, -0.01672068f, 0.16863547f, -0.00818996f, -0.00287732f, -0.22300528f, -0.01801593f, 0.11151405f, 0.18978046f, 0.19704869f, 0.16671184f, 0.00222112f, -0.08524083f, -0.01376482f, -0.11579598f, -0.06795081f, -0.35287189f, -0.02255612f, 0.13684669f, 0.05566031f, 0.04576059f, 0.02333979f, 0.07962587f, -0.11017466f, -0.05459658f, 0.03597850f, 0.32724652f, -0.15939356f, -0.18263166f, 0.15260138f, -0.09644493f, -0.26983994f, -0.11328372f, -0.22038606f, 0.06249129f, -0.03529077f, -0.05477837f, 0.23099667f, 0.06974468f, -0.10832337f, -0.27765340f, -0.05541700f, -0.18309896f, -0.29308945f, 0.21611071f, -0.31379941f, 0.31069952f, 0.02584386f, -0.34241322f, 0.04533790f, 0.01677990f, 0.01090187f, 0.01724471f, 0.18166651f, 0.33830765f, -0.61149180f, 0.03307068f, 0.41081580f, 0.19001138f, -0.17831904f, -0.14110966f, -0.09093845f, -0.18886116f, -0.03523055f, 0.00454591f, -0.14316741f, 0.27967802f, 0.15163736f, 0.05505857f, 0.09446555f, 0.06781926f, -0.11381196f, -0.19338992f, 0.17413412f, 0.09707506f, -0.24769552f, -0.18340644f, -0.14265880f, -0.05225114f, -0.22765295f, 0.01557163f, 0.27365997f, -0.01859702f, 0.08321672f, -0.23309098f, 0.21619400f, 0.49075979f, -0.08483019f, -0.28245929f, -0.08208784f, -0.12942570f, -0.21150230f, 0.03521008f, 0.48367056f, -0.15335931f, 0.38310102f, 0.21303120f, 0.02036401f, -0.22341874f, 0.03860812f, -0.16535901f, 0.16479355f, -0.03963878f, -0.01232175f, 0.24491587f, 0.04795854f, 0.01131899f, 0.02639344f, -0.28360066f, 0.25366059f, 0.12834814f, -0.29562366f, -0.07508976f, 0.13605580f, -0.18497779f, 0.08233088f, -0.21285480f, 0.06884930f, 0.09608304f, 0.05045318f, 0.07418557f, -0.04561189f, -0.11857542f, -0.35419288f, -0.09238659f, -0.14344062f, 0.15973744f, -0.21840545f, -0.01342719f, 0.05990801f, -0.27801475f, 0.07316729f, 0.08661879f, 0.33607301f, -0.02093831f, 0.47198921f, 0.06539383f, -0.10299800f, 0.11556057f, 0.02381261f, 0.08779152f, -0.31120032f, -0.18803391f, 0.24959737f, -0.10916504f, -0.02838617f, 0.12513144f, 0.12699461f, 0.00452583f, 0.03175725f, -0.10890674f, -0.22254710f, -0.06428414f, 0.19327670f, -0.02547456f, -0.20724097f, 0.06011956f, -0.00163518f, -0.06969154f, -0.29652831f, 0.58764803f, -0.11665932f, 0.12934957f, -0.09949732f, 0.17048731f, -0.30554426f, -0.47921121f, -0.17113626f, 0.57025063f, 0.03232972f, 0.05570516f, 0.05053766f, 0.16142505f, -0.16652408f, -0.54234940f, -0.18769324f, 0.19195069f, 0.07879374f, 0.06669632f, 0.10045714f, 0.28289154f, 0.06167682f, -0.30479780f, 0.23512824f, 0.31483361f, 0.12667842f, -0.15719010f, -0.04427442f, -0.18191585f, -0.03583205f, -0.06473406f, -0.15782405f, 0.00001261f, -0.12113246f, -0.20438047f, 0.05889123f, 0.03755908f, 0.19830213f, 0.06938837f, 0.03635726f, -0.43440610f, -0.25047410f, -0.28922710f, 0.02354782f, -0.14697500f, 0.15438339f, 0.29567388f, 0.43419972f, 0.16277778f, -0.27961525f, -0.11202390f, -0.02277413f, 0.02178190f, -0.21614464f, 0.09087525f, 0.07922050f, -0.07928565f, -0.07890145f, -0.42610377f, 0.03143190f, -0.02290011f, 0.16816208f, 0.27157560f, -0.31571060f, 0.15633625f, -0.07714465f, 0.08224060f, -0.21873397f, -0.16875538f, 0.13018201f, -0.13248526f, 0.08621691f, -0.05027066f, -0.19819631f, -0.35130298f, -0.02406898f, -0.24659912f, 0.14746927f, -0.08313063f, 0.30563667f, 0.48867503f, -0.12103253f, 0.02520340f, -0.15068600f, 0.02097055f, 0.05780400f, 0.33272234f, -0.01756975f, 0.08769833f, -0.35834864f, -0.09636993f, 0.19310644f, 0.05454974f, 0.09358153f, -0.16021065f, -0.13519007f, -0.22351582f, -0.23847891f, 0.15279095f, 0.05171246f, -0.13734071f, 0.01412442f, 0.27265286f, -0.12333954f, 0.09929498f, 0.06162709f, -0.18472591f, -0.02767779f, 0.60854185f, 0.03389320f, -0.18164165f, 0.17439942f, 0.24371639f, -0.16117899f, -0.17107876f, 0.00544532f, 0.26372653f, 0.01193159f, -0.01784028f, 0.25834963f, 0.34986791f, -0.33956331f, -0.09686823f, -0.08925232f, 0.02263116f, -0.01591931f, 0.45875853f, -0.08732355f, -0.05903931f, 0.25593582f, -0.06127511f, -0.35521966f, 0.26264283f, -0.12729928f, 0.60051382f, -0.17032534f, -0.05126914f, -0.37029380f, 0.11655994f, 0.08084583f, -0.30056474f, -0.04239753f, 0.18128742f, -0.25999078f, 0.04931930f, -0.01134531f, -0.17523626f, -0.17392667f, -0.03117076f, -0.17926729f, -0.05943659f, -0.07770175f, -0.04052071f, -0.32643801f, -0.24699335f, -0.03100958f, 0.10870361f, 0.18816771f, -0.20574398f, -0.34328020f, 0.03290549f, 0.09460059f, 0.01306180f, -0.11541759f, 0.20756133f, -0.01227714f, -0.02958270f, -0.02103866f, 0.01401643f, -0.28902361f, -0.09126921f, 0.01292923f, 0.05711454f, -0.28664631f, -0.22222814f, -0.09827720f, 0.24651252f, 0.15262635f, -0.15632722f, 0.08427722f, -0.07727561f, -0.26262668f, -0.17153262f, -0.13945454f, -0.03874438f, 0.03714287f, 0.20515230f, 0.04632705f, 0.14219324f, -0.12941031f, -0.03052033f, -0.02658601f, -0.01794241f, -0.25664073f, -0.31142440f, -0.11612719f, 0.15520474f, 0.08804441f, 0.05909485f, -0.04593538f, 0.13419670f, -0.07705092f, -0.20909479f, -0.06824443f, 0.33938569f, 0.17101954f, -0.26030934f, -0.11229229f, 0.12960815f, -0.00180217f, -0.17117228f, -0.05068187f, 0.08671106f, 0.08821493f, -0.09199416f, -0.04295718f, -0.09357042f, -0.05798209f, 0.09267823f, -0.25904113f, 0.00268391f, 0.06132239f, 0.34938780f, -0.14787807f, -0.04647672f, 0.14855671f, 0.17951147f, -0.05925860f, 0.09083545f, -0.08807229f, -0.17933944f, 0.12855041f, 0.16499141f, 0.16672017f, -0.15498778f, -0.07951983f, -0.30053604f, 0.04980797f, -0.22725272f, -0.07753109f, -0.23587498f, -0.01074257f, 0.09176631f, 0.05433588f, -0.40991089f, 0.14581558f, 0.51784491f, -0.20379588f, 0.02271563f, 0.36502567f, 0.17384620f, -0.05086180f, -0.37914059f, 0.03636570f, -0.18270887f, -0.04296830f, -0.03713251f, 0.21309102f, -0.05579864f, 0.00578865f, 0.09787516f, -0.15974370f, -0.20605940f, 0.07712880f, 0.22272390f, 0.11861863f, 0.09490549f, -0.08486964f, 0.05656216f, -0.00975410f, 0.15249434f, -0.25919566f, 0.23577197f, 0.16287357f, -0.07618570f, 0.10199243f, -0.02526811f, 0.12130224f, -0.30511028f, 0.18398824f, -0.05537629f, 0.08195398f, 0.17201673f, 0.00290182f, 0.12558769f, -0.25013938f, -0.21831569f, 0.06622172f, 0.11499268f, -0.13520327f, -0.05902892f, -0.06831060f, -0.04166402f, 0.04939311f, 0.22981743f, 0.36889523f, 0.28832594f, -0.06833785f, -0.00302635f, -0.10701799f, 0.09893201f, -0.13516063f, -0.15259513f, 0.13952021f, 0.08667760f, -0.23874381f, -0.09671905f, 0.22860812f, -0.33820632f, -0.05449551f, 0.01774366f, -0.17252579f, 0.15774228f, 0.20441115f, -0.21960576f, -0.13793012f, -0.01163551f, 0.03801188f, 0.13734371f, -0.31427679f, -0.16441481f, 0.15407354f, -0.01162202f, -0.00234139f, 0.03416688f, -0.11968371f, -0.09155355f, -0.06865787f, 0.10887257f, 0.14282423f, 0.05412637f, -0.28505927f, -0.41256434f, -0.08532498f, -0.07251278f, -0.14411351f, -0.01614084f, -0.14844771f, 0.13817434f, 0.31341881f, -0.05845111f, -0.12913290f, 0.25687796f, 0.11377521f, 0.10704204f, 0.18953082f, 0.00674637f, -0.28455609f, -0.20283896f, -0.02257190f, -0.06812008f, 0.09062739f, 0.21332698f, -0.12429981f, -0.25469533f, 0.13025585f, -0.38561282f, 0.03406405f, 0.13174415f, 0.06060645f, 0.01087205f, -0.31547061f, -0.10495725f, -0.22245333f, 0.15908751f, 0.44389185f, 0.28913575f, 0.17537031f, -0.31572008f, 0.12157494f, 0.14421414f, -0.02422877f, 0.13918270f, 0.09060251f, 0.02085064f, -0.14921810f, 0.03784832f, 0.05835617f, 0.10177056f, 0.13782999f, 0.17285778f, -0.13633202f, -0.09259776f, -0.09995753f, 0.06435554f, 0.12052820f, -0.23135248f, 0.08602651f, -0.16363537f, 0.05950460f, 0.03885431f, 0.21810791f, -0.30201268f, -0.57003337f, 0.05428618f, 0.17038496f, -0.43282133f, -0.04298236f, -0.11751405f, -0.23556446f, -0.08397613f, 0.15242939f, 0.25461727f, 0.21940444f, -0.22457163f, -0.14872913f, -0.00464433f, 0.02373511f, -0.06461051f, -0.14503521f, 0.06675328f, -0.10915785f, 0.31822401f, 0.03780546f, 0.01510950f, -0.01924392f, -0.14308587f, -0.12088177f, 0.13482201f, -0.08815648f, -0.13163011f, 0.04780732f, 0.06322088f, 0.20539668f, 0.03591121f, 0.32433602f, 0.03155432f, -0.07014068f, 0.16363159f, -0.06779482f, -0.23274599f, 0.04400384f, 0.26729408f, -0.00298151f, -0.09814920f, -0.22621106f, -0.28458348f, 0.17687951f, 0.01701769f, -0.23020010f, 0.03478751f, 0.26591444f, -0.11668464f, -0.09690724f, -0.16475837f, 0.50050098f, -0.13912861f, -0.03055146f, 0.24971396f, 0.19512582f, -0.21237832f, -0.07669520f, 0.02144580f, -0.20751345f, -0.40113699f, -0.18385744f, -0.09922504f, -0.07839701f, -0.08906735f, -0.05881092f, 0.11633454f, -0.17417145f, 0.01271351f, -0.36193240f, -0.06718078f, -0.43204626f, 0.01987945f, -0.15395163f, -0.03201172f, -0.11976077f, -0.18301213f, -0.21442850f, 0.07310213f, -0.05396799f, -0.10701642f, -0.26778877f, 0.08573279f, 0.27179039f, 0.02701792f, -0.10651909f, -0.13314068f, -0.39889285f, 0.24261470f, 0.08533198f, -0.01201726f, 0.04318053f, -0.26210856f, -0.00393797f, 0.02636262f, -0.03934158f, -0.04410420f, 0.05273823f, 0.17608368f, -0.18891476f, -0.18125676f, -0.02951088f, 0.44256461f, 0.10654712f, -0.16680376f, 0.01558094f, -0.00811739f, -0.13903764f, 0.16128477f, 0.36223519f, 0.12579118f, -0.04277596f, 0.06877831f, -0.21747975f, 0.01217863f, 0.21065840f, 0.16763328f, 0.14719056f, 0.20634969f, -0.07525789f, -0.10727588f, 0.05900132f, 0.05123406f, -0.25543803f, 0.09083862f, 0.12163838f, 0.42394707f, 0.11055566f, 0.02188506f, 0.17820187f, -0.47962970f, 0.01105511f, -0.06610048f, -0.33738008f, -0.25802168f, -0.02833627f, 0.08787521f, 0.17004022f, -0.20823276f, -0.44759512f, 0.07053208f, 0.12646201f, -0.02382330f, -0.02426702f, -0.01045304f, 0.06771217f, -0.15925938f, 0.07384707f, -0.13212591f, -0.19671576f, -0.11551186f, 0.04506897f, 0.23593152f, 0.35407403f, -0.07487744f, -0.25670373f, -0.04059146f, -0.35983929f, -0.11731335f, 0.09445135f, 0.16930085f, 0.08224233f, 0.38598797f, -0.31005615f, -0.46836820f, -0.00967466f, -0.03581003f, -0.18241806f, -0.00425817f, 0.23097141f, -0.06404324f, -0.25803536f, 0.05513737f, -0.31902331f, 0.05613387f, -0.12118433f, 0.05453688f, -0.00950223f, -0.01068675f, 0.12740451f, -0.11214975f, -0.03985444f, -0.10309619f, -0.06514750f, 0.02939131f, -0.27515915f, -0.10194444f, -0.24137461f, -0.12034870f, -0.08457949f, -0.20698908f, 0.23713009f, 0.17854045f, 0.25153267f, -0.27970281f, -0.39504597f, -0.09827004f, -0.09967960f, 0.01000765f, -0.22052771f, -0.24576862f, 0.20340708f, -0.06065027f, -0.08793248f, -0.08407453f, 0.09272464f, -0.16553457f, -0.22401762f, 0.20326097f, -0.03152770f, -0.11927655f, -0.09646594f, -0.04690467f, 0.08212038f, 0.08415142f, 0.29346445f, -0.46261918f, 0.14392303f, 0.18520266f, 0.16780582f, -0.43602112f, 0.00872809f, -0.18213680f, 0.03968012f, 0.15200684f, -0.11298425f, -0.03897738f, 0.14981295f, 0.10208128f, 0.29560378f, -0.36236733f, -0.14196676f, -0.07955885f, -0.17096698f, -0.08957372f, -0.05534531f, 0.06267487f, -0.14546935f, 0.01267840f, 0.20687440f, 0.16890267f, -0.28612751f, 0.23245975f, -0.13404259f, -0.34162754f, -0.04143705f, -0.10170079f, 0.18301225f, -0.02392884f, -0.02864675f, 0.15562494f, 0.24894613f, 0.09358866f, 0.06977773f, 0.00873787f, -0.00474586f, 0.40358758f, 0.22098167f, -0.22360891f, -0.09456669f, -0.06258607f, 0.16534284f, -0.23413265f, -0.12106044f, -0.04182625f, 0.19573343f, 0.05670303f, -0.09314063f, -0.29510281f, 0.03996230f, 0.12716113f, 0.14890428f, -0.00754632f, 0.14268699f, -0.12115397f, 0.09086598f, -0.30625820f, 0.06180680f, 0.18076144f, -0.69163805f, -0.15809540f, 0.12623456f, 0.00068552f, -0.24547274f, -0.03115839f, 0.00748245f, -0.30196339f, 0.21723712f, 0.17726205f, -0.10199644f, -0.16495219f, -0.10233440f, 0.11091797f, -0.35287705f, -0.13588993f, 0.02307309f, -0.14964279f, -0.02668377f, -0.33485276f, 0.31701312f, 0.09038571f, -0.17186287f, 0.44140342f, -0.12904660f, 0.25834364f, 0.08909368f, -0.05594879f, -0.23700389f, 0.19963752f, -0.03547909f, -0.01154923f, 0.13808310f, 0.01920491f, -0.07448363f, -0.21449131f, 0.01144087f, 0.03065792f, 0.02293595f, -0.10004470f, -0.07732890f, 0.12021252f, 0.09653378f, -0.37575868f, 0.02506672f, -0.08953468f, 0.12679316f, -0.16096555f, 0.33095557f, 0.11162306f, 0.05005873f, -0.28815088f, 0.10439581f, -0.08672252f, 0.08284398f, 0.05818294f, -0.00234778f, 0.22017091f, 0.01577340f, -0.03392584f, -0.17481707f, -0.08024473f, -0.10115983f, 0.07198633f, 0.08258884f, -0.02839964f, 0.09605502f, 0.23246738f, 0.28468591f, 0.09375159f, 0.03970800f, -0.23794527f, -0.16131547f, 0.15055515f, 0.00821043f, -0.01568766f, -0.15360959f, 0.11908511f, 0.29891908f, 0.00336352f, -0.01082005f, -0.25503170f, -0.00280179f, -0.19011420f, -0.19374915f, 0.02034066f, 0.01945879f, 0.00408627f, 0.38227779f, 0.12546319f, 0.23096967f, 0.00834732f, -0.06907037f, -0.26050952f, -0.08415078f, -0.12127556f, -0.13356361f, 0.06717441f, 0.05381080f, -0.09883188f, 0.18346034f, -0.26601389f, -0.07806697f, 0.23866993f, 0.12148642f, -0.15528439f, -0.08992699f, 0.70011437f, -0.11062781f, 0.11063378f, 0.00536669f, 0.08401275f, -0.09049255f, -0.26898593f, 0.30549237f, 0.11254667f, -0.10677197f, 0.45862490f, 0.01564971f, -0.04174849f, -0.00914666f, 0.02949136f, -0.19475839f, -0.04565673f, -0.12956355f, -0.11610415f, 0.12559596f, 0.01282256f, -0.03386923f, -0.17344675f, 0.17742300f, -0.15379171f, -0.10639602f, -0.00780526f, -0.12161267f, 0.13423727f, 0.16224389f, 0.01560567f, 0.31849405f, 0.02182878f, -0.05218736f, -0.14858696f, -0.30353811f, 0.06538493f, 0.07877088f, 0.23284818f, -0.11983884f, -0.06983830f, -0.13498455f, -0.07175439f, -0.12546733f, 0.26654005f, 0.16277537f, -0.16895264f, -0.02353380f, 0.08643746f, 0.07524765f, -0.09191186f, -0.15954012f, -0.14150490f, -0.34835955f, -0.05385583f, -0.13337505f, 0.12507562f, 0.23325960f, -0.19760771f, -0.13864698f, 0.13022608f, -0.00323151f, 0.07684067f, 0.00626841f, 0.21452530f, -0.09481233f, 0.09461784f, -0.10710742f, 0.37625390f, -0.17502555f, -0.02629141f, 0.14929311f, 0.07769189f, 0.04003187f, -0.29804453f, -0.05375488f, 0.14359194f, 0.09694598f, 0.01277058f, -0.07904159f, -0.12359245f, -0.05201689f, 0.14910846f, -0.01668767f, 0.43922201f, -0.11061786f, 0.07656349f, -0.19378161f, 0.04624408f, 0.06682827f, 0.05456636f, -0.01602047f, 0.02682630f, -0.17001715f, -0.13544141f, 0.11127000f, -0.02700253f, 0.14107528f, -0.14408661f, -0.19097960f, 0.11590187f, 0.22841620f, -0.29801643f, -0.13236071f, -0.08642882f, -0.08759815f, 0.15113686f, -0.08611374f, -0.09491616f, 0.07708065f, 0.11314825f, 0.28214097f, -0.01604601f, -0.09197026f, 0.17304939f, 0.13661338f, -0.07101752f, -0.18821292f, 0.01565154f, -0.24869433f, 0.20944762f, -0.16852440f, -0.13821963f, 0.09380020f, 0.40965137f, 0.17220247f, -0.01679748f, -0.14891614f, 0.16268481f, -0.22958270f, -0.21520928f, 0.07451018f, -0.05132520f, 0.06670178f, 0.21067840f, 0.11386598f, -0.08036716f, -0.04016304f, 0.15108076f, -0.40701780f, 0.08624940f, 0.11976002f, -0.16742596f, -0.07956462f, -0.08060800f, -0.10255882f, -0.01562618f, 0.03156215f, -0.29095688f, -0.19686009f, -0.06239261f, -0.06428016f, -0.00912226f, 0.03985303f, 0.24238454f, -0.14692679f, -0.11511809f, 0.01258606f, -0.29341614f, -0.31918561f, 0.14089306f, -0.12069430f, 0.06251267f, 0.01605617f, 0.15825161f, 0.17269902f, 0.01109344f, 0.07566525f, -0.04168174f, 0.21222730f, -0.20335910f, -0.15762019f, 0.21001133f, -0.13479002f, 0.17470218f, 0.07860465f, -0.20914417f, -0.39044040f, 0.34814099f, -0.06798911f, 0.01206807f, 0.06300607f, 0.00769082f, -0.23182632f, 0.07236267f, -0.10331102f, -0.10976774f, -0.01937589f, -0.16041037f, -0.00527556f, 0.13832243f, -0.26731867f, -0.41738096f, -0.06766699f, 0.00718482f, -0.22424299f, -0.27166310f, -0.02537291f, 0.07913642f, 0.13055418f, -0.25503507f, 0.02047821f, 0.01321039f, 0.09128900f, 0.06809078f, 0.35783693f, 0.02785288f, 0.04970068f, -0.07518262f, 0.17380612f, -0.11047819f, 0.00081012f, 0.07004318f, 0.15185070f, -0.02576902f, -0.24247156f, -0.41881144f, -0.05110423f, 0.14331770f, 0.45961600f, -0.35582703f, -0.12187789f, 0.09947426f, 0.03827007f, 0.30507320f, -0.00755253f, 0.30746391f, 0.21246043f, 0.26024288f, -0.19645442f, 0.07915749f, 0.06649484f, 0.19210111f, -0.07678297f, -0.10969188f, -0.26268065f, 0.10856576f, -0.00188742f, -0.28337225f, -0.02675857f, 0.17944299f, -0.15809998f, 0.00538336f, 0.18561815f, 0.18839776f, -0.16084918f, -0.04626425f, -0.12495442f, 0.23224729f, 0.36897689f, -0.05435483f, -0.12707013f, 0.08754226f, 0.07320538f, 0.03647143f, 0.09979878f, -0.09241012f, 0.06983016f, 0.00046255f, 0.27791920f, 0.19357435f, 0.10664834f, -0.12162133f, -0.20350085f, -0.16178104f, 0.06023654f, 0.21574909f, -0.21341123f, -0.19534601f, 0.14295216f, 0.08561476f, -0.53617978f, 0.28650251f, -0.35822862f, -0.22078514f, 0.17102674f, 0.20806564f, 0.19091682f, 0.20963471f, -0.12034623f, -0.08961403f, -0.12870435f, -0.05715217f, 0.09144746f, -0.24013408f, -0.36959198f, 0.08423049f, 0.02301655f, -0.19764285f, -0.12621684f, -0.18635675f, -0.20088473f, -0.28095675f, -0.04386884f, 0.15785787f, 0.13507242f, -0.29473996f, -0.35228977f, 0.03079699f, -0.14170311f, 0.11904272f, 0.16274680f, -0.01663747f, -0.05030675f, -0.12268787f, -0.36281848f, -0.06763762f, -0.07072363f, -0.05842008f, 0.20244084f, 0.19276840f, 0.20800273f, 0.13445018f, 0.09436204f, -0.15813237f, -0.03232216f, 0.07877715f, 0.05057754f, -0.39591327f, 0.09945039f, 0.07112887f, -0.14733005f, -0.00151725f, 0.05623024f, 0.13015513f, -0.34284329f, -0.12743731f, 0.04640443f, -0.17372908f, 0.01630921f, -0.20726837f, 0.00674748f, -0.03139543f, -0.17378378f, 0.07958046f, -0.13726202f, 0.13854864f, -0.06145116f, -0.12526807f, 0.07043897f, -0.00313419f, -0.05993228f, -0.06378235f, -0.01857517f, 0.07576897f, 0.18527803f, 0.06487057f, 0.22589393f, 0.09608556f, -0.37920958f, 0.24158350f, 0.15347432f, 0.25143012f, -0.09211143f, -0.04096058f, 0.22872721f, 0.05717432f, -0.11194275f, 0.07815569f, 0.14463764f, 0.03835154f, -0.09909311f, 0.05021128f, 0.00069575f, -0.03949604f, -0.06324413f, -0.43050110f, -0.10440499f, 0.20798884f, -0.28443906f, -0.06184500f, 0.03924733f, 0.18972070f, 0.15528862f, 0.10567598f, -0.17160028f, 0.26213807f, 0.05116188f, -0.10998277f, 0.15711147f, 0.11864805f, -0.01588570f, 0.10305755f, -0.03790672f, 0.05556976f, -0.13204296f, -0.09003990f, 0.18190145f, 0.10016276f, -0.08117048f, -0.12031204f, 0.05995283f, 0.03594248f, -0.02611423f, -0.06236684f, -0.04684822f, -0.01681292f, -0.19903246f, 0.06419461f, -0.61132723f, 0.13106412f, 0.11886767f, 0.06859314f, 0.04807736f, -0.16238813f, -0.19086127f, 0.29810816f, -0.07142662f, -0.12748976f, -0.20454512f, 0.26053697f, 0.18863353f, -0.02270376f, -0.04784956f, 0.40913379f, 0.14238167f, 0.55523115f, -0.27809629f, 0.10516319f, -0.02165809f, -0.00953219f, -0.17177546f, 0.12079368f, 0.14479105f, 0.17367989f, -0.22222780f, 0.00874883f, 0.31052485f, 